tree
version=v2
num_class=1
num_tree_per_iteration=1
label_index=0
max_feature_idx=6
objective=binary sigmoid:1
feature_names=ps_reg_01 ps_reg_02 ps_reg_03 ps_car_12 ps_car_13 ps_car_14 ps_car_15
feature_infos=[0:0.90000000000000002] [0:1.8] [-1:2.8635642127000001] [0.14142135619999999:1.2649110641000001] [0.32934947149999999:2.7072751693999999] [-1:0.57532599449999999] [0:3.7416573868]
tree_sizes=4853 4971 4984 4979 4965 4983 4984 4981 4991 4972 4977 4961 4961 4966 4989 4983 4977 4984 4997 4976 4983 4976 4986 4981 4980 4987 5007 4978 4992 4990 5005 5004 4977 4984 5003 5003 4988 4988 4996 4984 4990 5008 5001 4981 4987 5009 4995 4990 4989 4992 4980 5003 4984 4980 4994 5020 5011 4997 5001 5020 5016 5007 5011 4995 4995 5013 5011 5009 5027 5008 4993 4969 5005 4997 4991 4985 5006 5010 4990 5014 4995 4994 4995 5003 4986 4994 5040 4989 5005 5046 5005 4988 5016 4988 4993 5003 5019 5002 5008 5018

Tree=0
num_leaves=64
num_cat=0
split_feature=4 3 5 5 2 2 2 2 5 2 2 0 5 3 5 2 2 5 4 5 4 5 2 4 4 5 4 4 5 4 2 2 4 0 2 4 4 5 4 0 2 5 4 4 2 0 5 5 0 0 4 2 5 5 5 5 2 2 0 5 5 5 4
split_gain=32.699 9.78143 9.11845 9.01676 7.21032 8.48686 6.71541 6.55006 13.2644 17.882 5.80578 8.57974 9.32918 10.2145 18.1331 10.364 12.0421 11.1238 10.2567 12.2548 8.1882 6.92545 16.2151 7.89071 9.75144 6.11413 5.47844 7.5452 6.74715 13.7405 6.12822 11.3105 5.09956 12.0259 4.86351 4.67935 11.8151 5.62484 5.46601 7.79107 4.84255 4.25886 4.09285 5.06676 3.97418 3.83076 3.81842 11.297 3.72656 3.69465 3.8813 3.54348 3.34251 3.29741 7.50998 3.26959 3.9457 3.15948 3.13268 3.52891 7.80174 3.92519 4.52652
threshold=0.83675262640000014 0.53079872135000006 0.39918666825000004 0.41988086800000007 0.97146774835000016 1.2159101461500001 0.85713911755000016 1.5539264490000002 0.38736287360000005 1.6270178389000001 1.2278028894000002 0.45000000000000007 0.32870958950000001 0.42996224345000006 0.36918807530000003 1.1465982214500003 0.62524990010000014 0.35846893940000008 0.87473726740000002 0.38203402430000005 0.84892372130000016 0.31882588455000005 0.73335697625000018 0.9128631960000001 0.94970634370000007 0.32687917365000008 0.72401649345000008 0.71314399890000013 0.37060755395000006 0.64604646035000013 1.0590384687000001 1.0857024993500002 1.4314212996 0.65000000000000002 1.0857024993500002 1.3285679847500003 1.1810049377500003 0.51956632320000018 0.92547731650000009 0.65000000000000002 1.3363897210000002 0.50174639155000011 0.76053890175000005 0.60977742380000011 0.76546551745000013 0.75000000000000011 0.37940742700000002 0.38255717970000008 0.75000000000000011 0.45000000000000007 0.80719901340000011 0.5774404097000001 0.38203402430000005 0.41297699250000003 0.42473519530000009 0.39064047875000002 0.95965487205000011 0.5801400067500001 0.75000000000000011 0.39465161815000005 0.39064047875000002 0.36159368805000008 0.71652412240000007
decision_type=2 2 2 2 2 2 2 2 2 2 2 2 2 2 2 2 2 2 2 2 2 2 2 2 2 2 2 2 2 2 2 2 2 2 2 2 2 2 2 2 2 2 2 2 2 2 2 2 2 2 2 2 2 2 2 2 2 2 2 2 2 2 2
left_child=4 2 7 -3 42 26 41 10 9 -9 11 46 20 15 -15 16 17 -14 -19 -20 -13 23 -23 -22 -25 -24 27 28 30 -30 -6 -32 33 -5 -31 36 37 38 39 -8 -41 45 43 -1 -26 -4 -2 -48 -12 -28 -51 -34 -18 58 -55 56 -54 -47 -45 60 61 62 -60
right_child=1 3 6 32 5 -7 35 8 -10 -11 48 12 13 14 -16 -17 52 18 19 -21 21 22 25 24 44 -27 49 -29 29 34 31 -33 51 -35 -36 -37 -38 -39 -40 40 -42 -43 -44 53 -46 57 47 -49 -50 50 -52 -53 55 54 -56 -57 -58 -59 59 -61 -62 -63 -64
leaf_value=-3.2839359415679126 -3.2802240820441608 -3.2873276312180515 -3.2863538227135534 -3.2873276312180515 -3.2873276312180515 -3.2808576563468965 -3.2377057369888433 -3.2253002634315413 -3.2193928950709214 -3.2794019120008864 -3.2664501269386896 -3.2321032650597394 -3.2873276312180515 -3.2128947898742393 -3.2726955342017465 -3.2397733159150603 -3.2873276312180515 -3.2710232945427404 -3.2017298636726674 -3.2601537367591997 -3.2873276312180515 -3.2734092950318101 -3.2058059478414953 -3.2324572674069079 -3.2873276312180515 -3.2465667895297736 -3.2605783288601189 -3.2354501963420614 -3.2796161206283774 -3.215996158263565 -3.2302624528544621 -3.2756019096364923 -3.2224808376230638 -3.2329798423003475 -3.2516618947408085 -3.2873276312180515 -3.2410585676800063 -3.2465667895297736 -3.2807684153141907 -3.2873276312180515 -3.2578111596506778 -3.2641930994490287 -3.2845420227902613 -3.2806286754971086 -3.2587950420362568 -3.2605783288601189 -3.2329798423003475 -3.2768888790783706 -3.2850266159614554 -3.2850450240835078 -3.2659281893317056 -3.25051138711251 -3.2609085671608344 -3.2450571287265038 -3.2808429518585527 -3.2873276312180515 -3.2873276312180515 -3.280368463124931 -3.2765315163925077 -3.2873276312180515 -3.2550265868613031 -3.2814567280942257 -3.2610476148663987
leaf_count=673 241 23 293 26 64 441 23 23 21 72 41 31 32 23 39 24 150 35 20 21 45 41 21 26 26 21 32 22 37 20 20 73 22 21 24 48 37 21 174 35 29 37 717 1150 30 32 21 82 124 125 40 31 54 27 44 42 23 82 185 69 53 243 76
internal_value=0 0.513078 0.428885 1.9779 -0.285614 0.137876 -0.0174656 0.701263 1.9139 1.06466 0.585298 0.731931 1.06978 0.626144 2.64388 0.314175 0.0975057 1.60416 2.71654 4.52959 1.92207 1.54378 2.74368 0.759585 1.74592 5.07638 0.64799 1.15707 0.880414 2.13254 0.23441 1.10987 2.67149 1.39056 4.15 0.517166 0.751134 0.378768 0.16478 1.25798 0.299722 -0.45938 -0.403098 -0.301784 0.490788 -0.617115 0.0405233 0.901365 -0.346044 -0.0238948 -0.346044 3.80741 -0.507398 -0.157203 0.971594 0.161105 0.815022 0.213686 -0.20233 0.101737 0.242894 0.0378901 0.492741
internal_count=6398 2263 2140 123 4135 898 811 1329 116 95 1213 1048 704 463 62 401 377 108 76 41 241 210 83 127 82 42 457 260 238 81 157 93 100 47 44 367 319 282 261 87 64 444 3237 2520 56 407 344 103 165 197 165 53 269 1847 71 119 77 114 1776 626 557 504 261
shrinkage=1


Tree=1
num_leaves=64
num_cat=0
split_feature=3 2 6 0 3 5 5 0 6 2 0 5 1 1 2 5 5 1 2 5 0 3 5 5 2 2 2 3 2 1 2 5 1 3 1 0 5 3 3 5 2 5 2 5 3 3 2 0 0 6 5 3 1 1 6 2 3 5 1 2 1 1 1
split_gain=16.5947 15.2668 9.27828 11.0069 16.544 46.2023 8.54278 6.85269 7.05857 8.19604 6.95859 7.41961 4.92412 5.82084 8.64478 4.91294 4.9099 6.11962 4.8513 8.81667 6.68948 9.91557 5.42027 7.90058 4.70281 4.75243 4.29252 13.9246 5.954 4.1894 5.62463 7.09056 4.00563 7.90921 24.1176 5.47986 4.32023 17.0991 3.97985 3.59937 5.92223 3.22211 3.60853 3.11962 5.54818 5.23215 2.84614 2.80785 3.03788 7.01155 7.92057 3.35996 7.05687 5.24603 2.79002 10.2518 3.17009 2.7867 2.76176 2.61008 4.03267 2.52511 2.51148
threshold=0.53079872135000006 0.80603192395000012 3.5348264453000007 0.8500000000000002 0.44547726860000009 0.39591665290000005 0.41988086800000007 0.75000000000000011 3.0811388301000004 0.66778547845000003 0.8500000000000002 0.29470313070000004 1.0000000180025095e-35 0.55000000000000016 0.57527161085000011 0.50174639155000011 0.37396494620000015 0.45000000000000007 1.0217937544500002 0.39096035080000008 0.75000000000000011 0.39993749025000008 0.37094471535000001 0.28844389370000006 1.0789172716000002 1.0312310493000003 0.87016519570000017 0.37067024925000008 0.85713911755000016 0.45000000000000007 0.9627434209500001 0.32870958950000001 1.3500000000000003 0.42408725105000006 1.5500000000000003 0.65000000000000002 0.40373250875000005 0.41987661255000003 0.34603945240000006 0.31882588455000005 1.2207835531500002 0.41139993640000011 0.94620952895000021 0.39855990275000003 0.39981245115000003 0.42408725105000006 0.59608089325000002 0.65000000000000002 0.75000000000000011 2.7370892179000008 0.3582596755500001 0.39993749025000008 0.95000000000000007 0.65000000000000002 2.5476205269500007 1.18532684185 0.39993749025000008 0.33977869490000007 0.45000000000000007 1.5539264490000002 1.4500000000000002 1.4500000000000002 0.75000000000000011
decision_type=2 2 2 2 2 2 2 2 2 2 2 2 2 2 2 2 2 2 2 2 2 2 2 2 2 2 2 2 2 2 2 2 2 2 2 2 2 2 2 2 2 2 2 2 2 2 2 2 2 2 2 2 2 2 2 2 2 2 2 2 2 2 2
left_child=1 7 16 4 18 -6 -2 15 -9 10 -10 -12 -8 14 -14 -1 17 -3 20 22 -4 -22 23 -20 25 29 27 -18 58 -5 31 -31 35 -34 -35 36 62 -38 46 -25 -41 42 -37 44 -40 -45 -13 -19 49 -49 -51 61 53 -53 55 -44 -56 -55 -29 -26 -61 -50 -28
right_child=6 2 3 24 5 -7 12 8 9 -11 11 38 13 -15 -16 -17 26 47 19 -21 21 -23 -24 39 59 -27 32 28 -30 30 -32 -33 33 34 -36 41 37 -39 43 40 -42 -43 54 45 -46 -47 -48 48 51 50 -52 52 -54 57 56 -57 -58 -59 -60 60 -62 -63 -64
leaf_value=-0.0043630693379897671 -0.010373534809345454 -0.0092335197097282648 -0.0051328391760573954 -0.010379378701357786 0.08902552539548228 -0.0022782475651062181 0.0029716165471090246 -0.0039802135252521541 -0.0038481158964001894 -0.0027826501039584814 0.035594555778864424 -0.0056403430021378263 0.022944078305116525 0.014888643189264082 0.068783390911031181 0.016905357227417844 0.049287985663808404 -0.0075239862631149602 -0.010380062374937011 0.039415003592704057 0.038428470028351369 -0.01037769201286161 -0.010380701367120103 0.041234246279098372 -0.0083831846291198345 0.032296333988826621 -0.0031743465377951654 -0.010375918767494528 0.028387884346133877 0.04555115487329308 -0.010379619755776627 0.0059311143455469586 -0.0043017547609199291 0.070244294803904844 -0.0021128929683300445 -0.010376483329300553 0.052046344165615314 0.00022113826185429639 0.030865475345009347 -0.00094814119249116439 0.031533429629566019 -0.0085763564325480133 0.041154653326457548 -0.010378294552427208 0.0069071344309672477 0.022273551876904673 0.013327279471777968 -0.010378102070302916 -0.0046788072485819902 0.044083527947614068 0.0015605582542177116 0.00103867733695242 -0.0021551794727293089 0.046223274826748491 -0.004334109453700003 -0.010375909196853057 0.0077475054241409949 0.01809669839163704 0.010768765956591334 0.018810956958077892 -0.010378122483963982 0.013489889665432875 0.017949548549623915
leaf_count=2572 23 250 109 38 28 35 21 492 87 263 37 60 25 33 21 31 24 100 27 34 29 20 31 22 143 20 79 51 22 20 24 35 47 21 34 70 27 53 62 30 34 158 22 30 49 26 36 26 250 26 24 25 104 20 141 22 110 20 27 29 25 24 20
internal_value=0 -0.0416336 0.278187 0.783334 1.38028 3.87195 1.92154 -0.258755 0.0858991 0.450125 0.942578 1.32712 2.57894 3.17949 4.38982 -0.410586 0.0715846 -0.217126 0.908028 1.50973 0.225886 1.85961 0.932407 1.47441 0.0688253 0.826321 0.341113 1.26734 0.390735 0.416702 1.11497 2.05243 0.199093 1.18466 2.54546 0.0554475 0.857893 1.77161 1.01269 2.26445 1.62504 -0.221088 0.0545284 1.50888 2.02529 0.48317 0.147012 0.0673147 0.225042 1.21079 2.37939 0.0558318 0.647547 2.02559 0.312324 1.5523 0.0953218 3.22028 -0.304094 -0.45971 0.536686 -0.309463 0.110834
internal_count=6398 6275 2530 733 399 63 123 3745 1142 650 387 300 100 79 46 2603 1797 869 336 178 158 49 144 113 334 137 928 124 100 117 79 55 804 102 55 702 179 80 263 86 64 523 365 167 111 56 96 619 519 76 50 443 169 65 295 44 251 40 78 197 54 274 99
shrinkage=0.01


Tree=2
num_leaves=64
num_cat=0
split_feature=4 3 5 5 2 2 1 4 5 3 6 2 2 5 2 2 2 2 2 5 1 5 4 5 5 2 5 2 2 5 1 1 2 4 4 5 4 5 5 3 4 4 4 5 2 6 3 2 4 5 5 2 5 2 3 3 2 4 4 5 5 3 1
split_gain=31.4897 8.86102 8.77768 8.10574 7.03407 8.25248 6.57079 20.5699 14.3298 19.2117 7.14075 6.47713 6.04231 11.5379 16.3208 5.99922 5.67514 6.54184 12.7416 5.88708 13.1081 12.0908 10.3404 9.46307 19.6518 5.21152 14.9608 4.6383 5.62923 4.77466 4.55883 5.23726 7.45822 4.53876 11.1018 5.31509 5.22683 7.75725 4.39951 9.2089 6.83446 4.08715 5.01508 4.06816 4.05714 3.69665 8.55206 4.31573 3.53188 3.21289 7.0842 2.92646 2.89448 4.29902 7.49968 7.17407 4.63586 2.87833 2.54651 2.48295 8.53375 2.81523 5.22823
threshold=0.83675262640000014 0.53079872135000006 0.39918666825000004 0.41988086800000007 0.97146774835000016 1.2159101461500001 0.75000000000000011 0.71906591120000007 0.36131702870000004 0.3977435565500001 3.5348264453000007 0.85713911755000016 1.5539264490000002 0.38736287360000005 1.6270178389000001 1.0641897921500003 1.2278028894000002 1.1465982214500003 1.1748670062000002 0.32870958950000001 0.55000000000000016 0.32007810595000002 0.84187904710000006 0.35846893940000008 0.36034699480000004 0.79863161825000006 0.31882588455000005 0.59869644385000009 0.53648151425000012 1.0000000180025095e-35 1.0000000180025095e-35 0.55000000000000016 0.57527161085000011 1.3285679847500003 1.1810049377500003 0.51956632320000018 0.92547731650000009 0.40963391020000006 0.37396494620000015 0.38710458850000007 0.74370637575000009 0.76053890175000005 0.60977742380000011 0.50174639155000011 1.0366712572000003 3.6736043311500004 0.37067024925000008 0.44546310395000005 0.85100681710000015 0.41297699250000003 0.42473519530000009 0.9627434209500001 0.39755502265000014 0.86367671460000006 0.39993749025000008 0.42408725105000006 0.67012121710000006 0.61136786065000004 0.88185801220000004 0.33060547050000005 0.34677081020000006 0.38710458850000007 1.4500000000000002
decision_type=2 2 2 2 2 2 2 2 2 2 2 2 2 2 2 2 2 2 2 2 2 2 2 2 2 2 2 2 2 2 2 2 2 2 2 2 2 2 2 2 2 2 2 2 2 2 2 2 2 2 2 2 2 2 2 2 2 2 2 2 2 2 2
left_child=4 2 12 -3 41 6 10 8 -8 -10 38 43 16 14 -14 -12 17 19 -19 20 22 51 -2 -21 -25 27 -27 28 29 -24 -5 32 -32 34 35 36 37 -13 -6 40 -40 42 -1 -4 45 46 -26 -47 -48 57 -51 -22 53 54 56 -55 -50 -44 -39 -7 -61 62 -62
right_child=1 3 11 30 5 59 7 -9 9 -11 15 33 13 -15 -16 -17 -18 18 -20 23 21 -23 25 24 44 26 -28 -29 -30 -31 31 -33 -34 -35 -36 -37 -38 58 39 -41 -42 -43 49 -45 -46 47 48 -49 52 50 -52 -53 -54 55 -56 -57 -58 -59 -60 60 61 -63 -64
leaf_value=-0.0069469086533850482 0.042233461357296047 -0.010369680204945539 -0.0061332196899038707 0.0029337761037793158 -0.0083437363862804391 -0.010376061579740654 0.059739614626834199 -0.0065279231858432415 -0.0038454306443358841 0.058687245395971123 0.040557586994415057 0.038555442608713103 0.048044529127994895 0.052663778427311396 -0.0024782031105546761 0.001852413625438417 -0.0034770231106217653 0.058012350016098349 0.0055124132374109961 -0.0072184237767639464 0.030842771066137732 0.064753671856715878 0.013002614359469304 0.057744623400371328 0.041105050603275281 -0.0029644355217436275 0.05144403717540566 -0.01037889737508422 0.031986243485558979 -0.010376872770791388 0.022235595807534342 0.014537196792935081 0.063888183410865759 -0.010374572781425766 0.034274994994465541 0.029063491282708881 -0.0038233358334052326 -0.010390846823509537 0.039288584058251273 -0.010383745859076992 0.001065310612003948 -0.007564489438936197 0.018166078403265236 0.012154698044619215 -0.010379378156114474 0.018046162016145374 -0.01037631884155074 -0.010379391294440583 0.031996049757611701 0.030629455421412783 -0.0038491390698293282 0.002777896471291068 0.026798272415508341 0.0055192917397181079 -0.0038912315690566462 0.045080049040507594 0.0013716944828347391 -0.0022173783335222128 0.011166995977061174 0.032343761127376684 -0.0032523178900335328 -0.010376273637766487 0.022584410325941287
leaf_count=673 21 23 407 21 141 122 32 74 43 20 22 23 23 21 72 23 165 20 35 182 20 22 49 20 22 38 22 79 20 51 25 33 21 48 37 21 174 25 28 49 25 717 20 37 45 20 31 63 33 27 44 21 23 36 131 20 24 1756 39 20 161 112 26
internal_value=0 0.500136 0.419116 1.86791 -0.282195 0.135266 0.634981 1.46538 3.08625 1.6242 0.14466 -0.0191315 0.684439 1.83211 1.0283 2.08175 0.572473 0.716431 2.48076 0.616345 1.17785 3.33652 0.679433 0.317282 0.715402 0.384638 1.74343 -0.035098 0.627457 0.106639 2.49194 3.05527 4.17132 0.501573 0.728617 0.365212 0.155546 1.21 -0.218639 0.617608 2.15238 -0.398965 -0.29757 -0.456089 0.480523 0.649582 0.908795 -0.353224 0.672419 -0.153806 0.955914 1.65098 0.868686 0.699386 0.314495 1.99322 1.91646 -0.198697 0.268073 -0.388335 -0.14004 -0.367031 0.0351246
internal_count=6398 2263 2140 123 4135 898 457 169 95 63 288 811 1329 116 95 45 1213 1048 55 993 343 63 280 650 468 259 60 199 120 100 100 79 46 367 319 282 261 87 243 102 53 3237 2520 444 448 403 320 83 298 1847 71 41 267 244 188 56 57 1776 64 441 319 299 187
shrinkage=0.01


Tree=3
num_leaves=64
num_cat=0
split_feature=4 3 5 5 2 2 2 1 4 5 3 6 2 3 6 2 1 6 3 2 4 4 2 1 5 4 4 5 5 3 4 6 4 5 5 2 2 5 2 4 1 2 2 3 5 4 4 5 1 4 2 5 5 2 2 5 4 4 5 3 6 6 4
split_gain=30.7889 8.50691 8.98839 7.70233 6.87445 6.24592 9.37979 6.50412 18.7937 12.7097 17.6219 7.11379 6.11715 5.74612 15.823 19.1602 9.57047 7.14012 9.06438 6.89492 5.77959 4.88291 9.95194 6.50777 10.3913 4.53858 9.8236 4.93734 4.48218 8.67571 6.32267 4.46917 4.37387 10.1273 4.05336 3.87179 18.5004 10.4061 5.17367 7.56209 5.43178 10.6099 10.0972 5.55964 4.86016 3.86599 4.96804 3.65249 10.9725 13.121 3.28123 3.13033 6.71217 3.12525 3.1121 2.96078 3.47466 2.78447 2.31192 2.27885 3.52929 2.14271 2.92227
threshold=0.83442184190000013 0.53079872135000006 0.39855990275000003 0.41988086800000007 0.85713911755000016 0.97146774835000016 1.2159101461500001 0.75000000000000011 0.71906591120000007 0.36131702870000004 0.3977435565500001 3.5348264453000007 1.0641897921500003 0.42996224345000006 3.5348264453000007 0.61211717410000011 1.1500000000000001 3.6736043311500004 0.34603945240000006 0.66497176240000011 1.2464235448000001 0.96327394470000016 0.45927920080000001 0.55000000000000016 0.33083227520000008 1.3285679847500003 1.1810049377500003 0.51956632320000018 0.37396494620000015 0.38710458850000007 0.74370637575000009 2.9142135623500005 1.4314212996 0.47958201910000003 0.50174639155000011 0.58869553215000014 0.45311409280000003 0.32931746725000005 1.5539264490000002 0.97018039235000009 1.0500000000000003 1.1465982214500003 1.3004806581500001 0.39956225560000008 0.32870958950000001 0.76053890175000005 0.60977742380000011 0.40963391020000006 0.75000000000000011 0.97018039235000009 0.8723172977000001 0.41297699250000003 0.42473519530000009 0.95147909750000015 0.5774404097000001 0.38183763940000004 0.91792299750000017 0.61136786065000004 -1.0000000180025095e-35 0.40420577855000006 2.1180339887500002 1.5731321850000002 0.57342129605000014
decision_type=2 2 2 2 2 2 2 2 2 2 2 2 2 2 2 2 2 2 2 2 2 2 2 2 2 2 2 2 2 2 2 2 2 2 2 2 2 2 2 2 2 2 2 2 2 2 2 2 2 2 2 2 2 2 2 2 2 2 2 2 2 2 2
left_child=5 2 13 -3 34 45 7 11 9 -9 -11 28 -13 17 55 -16 20 18 19 -2 -17 -19 -23 -24 -25 26 27 31 -7 30 -30 -6 33 -5 -4 36 58 -38 40 -40 41 43 -43 44 -37 46 61 48 -33 -50 -46 57 -53 -49 -34 56 -15 -48 -20 60 -59 62 -1
right_child=1 3 4 32 25 6 -8 8 -10 10 -12 12 -14 14 15 16 -18 21 35 -21 -22 22 23 24 -26 -27 -28 -29 29 -31 -32 47 54 -35 -36 38 37 -39 39 -41 -42 42 -44 -45 50 -47 51 53 49 -51 -52 52 -54 -55 -56 -57 -58 59 -60 -61 -62 -63 -64
leaf_value=-0.0046535968926750947 0.051664691996215019 -0.010365867347854231 -0.0062424597826147713 0.037832307556705247 0.023205061884146616 -0.0083248204752971542 -0.0044829926990536655 0.055951148301612998 -0.0063375115744047084 -0.0038206284084198205 0.055022928336322052 0.040984718550751725 0.0018307301587856277 0.013992524989052268 -0.010382929431678456 0.080583531719655252 0.017155879501329369 -0.0062580533168205459 0.017350530548572038 0.011522265854662199 0.041781410822829892 0.038534075462212852 -0.010379769427400447 0.042349870282990622 -0.010378649407465969 -0.010371240653676662 0.031815880885908233 0.028006905672909914 0.037502289915680123 -0.010378927591561378 0.0010536114714215239 -0.010382578177121795 0.048756288299725434 -0.010397538690303717 0.011897964433040588 0.026373764226076984 0.065074314345928683 0.020821571299001168 0.005159882237114383 0.045781311041146938 -0.01037877746080937 0.042946607408287867 0.00014438139284262631 -0.0032482929859014888 0.011657087340434807 -0.0074729862098289026 0.0176827066698278 0.012137931987457818 0.057927040852011946 0.00081166280607287023 -0.010374105921384611 0.029472908063704253 -0.0038243504275928559 -0.0082888920823106192 0.02359837044995481 0.015597933949989651 -0.010385598467992661 0.015740306937315842 -0.0022312912598803007 -0.0084797040423892616 -0.0019705157810170652 -0.0090757293738245055 0.016018878048404021
leaf_count=203 22 23 420 22 25 141 439 32 71 43 20 21 23 23 22 20 20 206 20 25 20 23 66 21 21 49 38 21 28 47 25 45 22 25 37 37 22 45 35 20 77 36 27 240 51 700 20 25 20 25 31 27 44 136 31 32 57 33 105 152 1571 448 22
internal_value=0 0.488418 0.409575 1.8169 -0.0227564 -0.282504 0.112347 0.646914 1.47365 2.96743 1.58296 0.155858 2.09142 0.680753 1.51316 3.23283 4.70741 0.534237 0.808858 3.03453 6.12193 -0.114737 0.687317 0.00933996 1.63658 0.496833 0.713146 0.381163 -0.209806 0.641661 2.0882 0.188041 2.41013 1.25077 -0.470452 0.664185 1.31445 3.5498 0.438924 1.96416 0.266141 0.502354 2.49703 0.146078 1.07811 -0.393083 -0.29542 -0.0261318 0.824391 2.65355 0.345026 -0.152495 0.937757 -0.509065 3.41164 0.208345 -0.338062 -0.197077 0.0974828 -0.219975 -0.160643 -0.692216 -0.263317
internal_count=6398 2288 2165 123 841 4110 890 451 166 95 63 285 44 1324 194 82 60 1130 793 47 40 337 131 108 42 384 335 297 241 100 53 276 100 47 457 746 192 67 554 55 499 422 63 359 119 3220 2520 251 90 45 82 1847 71 161 53 112 80 1776 125 1756 1604 673 225
shrinkage=0.01


Tree=4
num_leaves=64
num_cat=0
split_feature=4 3 5 5 2 2 2 1 4 2 5 4 6 3 6 2 1 6 3 2 2 4 2 1 5 4 4 4 4 5 2 2 5 3 4 1 1 2 4 4 5 2 1 2 2 4 2 5 3 2 2 3 4 5 1 2 5 5 1 5 4 4 4
split_gain=30.1121 8.0794 8.25919 7.32825 6.92597 6.82232 7.84903 6.03231 18.4072 11.8488 14.6353 15.7494 6.60786 5.80506 14.4583 17.6136 8.343 6.79425 8.57259 6.1916 5.1323 4.78575 9.34903 6.34016 9.7378 4.7681 4.59473 9.02732 5.02066 7.47015 9.64169 6.87323 4.2584 8.56958 5.86363 4.0616 4.51545 6.50941 4.03641 4.92125 3.97256 6.79019 10.6143 5.92602 7.98176 5.94257 5.30435 5.57274 6.25246 5.86039 4.00273 4.8462 6.31761 3.94839 3.58604 3.22701 3.05045 6.36797 2.82709 2.78831 3.81481 2.69486 2.68635
threshold=0.83675262640000014 0.53079872135000006 0.39855990275000003 0.41988086800000007 0.85713911755000016 0.97146774835000016 1.2159101461500001 0.75000000000000011 0.71906591120000007 1.0590384687000001 0.36131702870000004 0.67581256475000007 3.5348264453000007 0.42996224345000006 3.5348264453000007 0.61211717410000011 1.1500000000000001 3.6736043311500004 0.34603945240000006 0.66497176240000011 1.0641897921500003 0.96327394470000016 0.45927920080000001 0.55000000000000016 0.33083227520000008 1.2464235448000001 1.3285679847500003 1.1810049377500003 0.97018039235000009 0.40963391020000006 1.2207835531500002 0.97851923740000013 0.37396494620000015 0.38710458850000007 0.74370637575000009 1.0000000180025095e-35 0.55000000000000016 0.57527161085000011 0.76053890175000005 0.60977742380000011 0.32870958950000001 1.0217937544500002 0.45000000000000007 1.1465982214500003 1.3004806581500001 0.99312200385000005 0.70422826610000011 0.38555154750000004 0.39993749025000008 0.58603534785000011 0.81028542060000019 0.39956225560000008 0.92328968515000009 0.50174639155000011 1.2500000000000002 0.92820389555000016 0.41297699250000003 0.42473519530000009 1.0500000000000003 0.38183763940000004 0.91792299750000017 0.61136786065000004 0.88185801220000004
decision_type=2 2 2 2 2 2 2 2 2 2 2 2 2 2 2 2 2 2 2 2 2 2 2 2 2 2 2 2 2 2 2 2 2 2 2 2 2 2 2 2 2 2 2 2 2 2 2 2 2 2 2 2 2 2 2 2 2 2 2 2 2 2 2
left_child=5 2 13 -3 53 38 7 12 9 -9 -11 -12 32 17 59 -16 25 18 19 -2 -14 -19 -23 -24 -25 -17 27 28 29 30 -6 -31 -7 34 -34 -5 37 -37 39 -1 41 42 50 46 -45 62 47 48 -42 -49 51 -20 -53 -4 -33 -30 61 -58 -43 60 -15 -41 -46
right_child=1 3 4 35 26 6 -8 8 -10 10 11 -13 20 14 15 16 -18 21 40 -21 -22 22 23 24 -26 -27 -28 -29 55 31 -32 54 33 -35 -36 36 -38 -39 -40 56 43 58 -44 44 45 -47 -48 49 -50 -51 -52 52 -54 -55 -56 -57 57 -59 -60 -61 -62 -63 -64
leaf_value=-0.0068973994846427914 0.048757227515879159 -0.010362093175007117 -0.0061764209511855237 0.0026895861186558671 0.0035894035296202345 -0.0083058409731238177 -0.0038306908227910752 -0.00049341413260867541 -0.0064833298031096998 0.07000127479439984 -0.010391159776274399 0.052591667606785804 0.036927809468424971 0.015901952963419286 -0.010378974379892254 0.074071120252627298 0.016715954755847674 -0.0062316923715280397 0.031842423002031467 0.01128569661446004 0.0018093376437158248 0.036806609131897837 -0.01037584835641068 0.040310599330740819 -0.010374740244461937 0.039799114578239314 -0.01036741080944876 0.030583634414518307 0.016514497625717019 0.030888548962710628 0.05459048290708933 -0.010384114601180348 0.035860509044514335 -0.010375860689721376 0.0010420507330374468 0.02052344414549814 0.013712516328913451 0.058150085758021712 -0.0075202611871253702 0.017220337874418477 0.020108463032655281 0.0092430702677422701 0.043685675233438429 0.038565635127176583 0.011773481296559606 0.031269462697238827 -0.005833335623688575 0.0070870758090577999 -0.0051770249199496665 0.043076768395440147 -0.010394003869986472 -0.010383110858838014 0.022747260476074723 0.011649556762913436 0.014439895932300512 -0.0059628093932637526 0.028392381223572041 -0.003799637847100521 -0.010381452106552462 0.015219808375990731 -0.010381614951969159 -0.0021822573467614246 -0.010385244921633761
leaf_count=673 22 23 416 21 20 141 441 27 74 25 22 21 22 21 22 20 20 206 32 25 23 23 66 21 21 20 49 38 21 20 20 59 28 49 25 25 33 21 717 20 36 42 34 27 25 20 190 32 110 21 20 31 34 37 22 129 27 44 40 32 57 1756 39
internal_value=0 0.485291 0.407265 1.76817 -0.0103005 -0.278136 0.132008 0.613893 1.39477 2.85693 3.9921 2.10825 0.141061 0.667222 1.50141 3.10455 4.46073 0.518823 0.788582 2.92018 1.96301 -0.113825 0.675692 0.00903775 1.59504 5.72715 0.513951 0.733026 0.405443 1.11131 3.00106 0.338464 -0.215346 0.597889 2.0273 2.33285 2.84373 3.83688 -0.394002 -0.293285 0.644489 1.20841 1.86305 0.375025 1.44008 0.621098 0.0604945 0.663766 0.125183 2.13133 1.09451 1.53918 0.695296 -0.462835 -0.349929 -0.279294 -0.151197 0.920138 -0.0186611 0.227981 -0.31795 -0.19547 -0.166191
internal_count=6398 2263 2140 123 831 4135 898 457 169 95 68 43 288 1309 192 82 60 1117 780 47 45 337 131 108 42 40 378 329 291 141 40 101 243 102 53 100 79 46 3237 2520 733 233 151 500 111 84 389 199 146 53 117 97 65 453 81 150 1847 71 82 110 78 1776 64
shrinkage=0.01


Tree=5
num_leaves=64
num_cat=0
split_feature=4 6 4 0 5 5 6 2 5 2 5 0 3 4 4 0 5 5 5 4 6 4 2 2 2 4 3 2 4 5 5 4 4 2 0 5 6 4 4 6 4 6 2 5 2 5 3 4 2 2 2 5 5 2 0 5 5 2 4 2 6 0 0
split_gain=23.0432 9.58502 7.34139 6.18401 8.80817 7.55188 8.07681 8.91117 6.18394 6.10133 12.2616 6.59264 16.7602 5.58909 8.37682 12.5436 12.2785 7.59605 17.1484 8.8771 8.96717 5.55331 5.37945 6.06608 12.6626 7.77032 4.88669 4.82751 4.19978 8.75714 7.14882 8.24172 7.68117 4.11111 4.08138 6.59152 9.27577 4.07015 3.9841 8.97347 8.30807 4.41215 3.87604 8.43456 5.85527 3.35891 7.07943 3.12492 3.35046 2.8515 10.4528 5.71269 3.70398 2.66859 11.055 2.61759 2.60812 4.13515 5.15633 7.60284 6.3152 4.48249 3.8427
threshold=0.85100681710000015 2.7370892179000008 0.92062568540000012 0.45000000000000007 0.50074937610000014 0.40963391020000006 3.6736043311500004 0.61415587215000012 0.52867738400000008 0.76219253340000004 0.40853394595000009 0.75000000000000011 0.44547726860000009 0.64423700765000003 0.73830691915000013 0.75000000000000011 0.41297699250000003 0.34190638865000006 0.33234017865000004 0.83442184190000013 3.6736043311500004 1.1513691081000001 0.5264859085500001 1.2014310930000003 1.1038285555000003 0.64980130230000011 0.55670399120000014 1.5111046965000001 0.6962339660500001 0.32155866620000001 0.36823902775 0.66396317935000015 0.67924514150000015 0.81028542060000019 0.55000000000000016 0.32488458580000007 3.5348264453000007 0.86321161800000012 0.71652412240000007 3.0811388301000004 0.72616072340000015 2.7370892179000008 1.5539264490000002 0.38736287360000005 1.6673331052500002 0.32870958950000001 0.38710458850000007 0.89630209080000023 1.0641897921500003 1.2758575488500001 1.1465982214500003 0.32062435290000008 0.36034699480000004 0.81028542060000019 0.35000000000000003 -1.0000000180025095e-35 0.34720310315000008 0.51082032695000013 0.68265857260000007 0.58603534785000011 2.7370892179000008 0.35000000000000003 0.65000000000000002
decision_type=2 2 2 2 2 2 2 2 2 2 2 2 2 2 2 2 2 2 2 2 2 2 2 2 2 2 2 2 2 2 2 2 2 2 2 2 2 2 2 2 2 2 2 2 2 2 2 2 2 2 2 2 2 2 2 2 2 2 2 2 2 2 2
left_child=13 2 -2 4 37 6 7 34 -6 -9 11 12 47 -1 15 16 56 18 19 -16 55 45 -17 24 25 -24 -7 -25 29 -27 -31 -32 -33 -13 -5 -36 -37 -3 41 -40 -41 -30 49 44 -44 46 -8 -11 -49 50 51 -35 -52 -19 -55 -21 -15 -58 59 -59 -61 -60 -62
right_child=1 3 -4 5 8 26 21 9 -10 10 -12 33 -14 14 17 22 -18 53 -20 20 -22 -23 23 27 -26 28 -28 -29 38 30 31 32 -34 42 35 36 -38 -39 39 40 -42 -43 43 -45 -46 -47 -48 48 -50 -51 52 -53 -54 54 -56 -57 57 58 61 60 62 -63 -64
leaf_value=-0.0057921700784748431 0.0084832398967834739 0.01488195417803216 0.047828598068400251 0.0029657108229623683 0.042027011074008573 -0.0023226541673470064 0.022907616781642846 -0.0020471918496121253 0.0021686029740391878 0.024458449338762886 0.047323435891062041 0.027618885890742875 0.05333928162007074 -0.009083579058426345 -0.0047727037868203924 -0.0064822758118969915 0.026804770075409427 -0.0090271365106835352 0.042810487513620099 0.042040675692479858 -0.010382037924730277 0.017632252611251065 0.038916553229014141 -0.010373315708871589 0.040753875885912831 0.046382282342950991 0.021127088437853637 0.013661507032094211 0.016934330204428465 -0.0055596342804297184 -0.010390603361739583 0.048160629924293569 0.011847129778661838 0.01836552138139726 0.0028398820254491074 0.015518277379004313 0.053759402978115656 -0.0042341065167580631 -0.010376229419740981 0.045806320334288338 0.0057557490520737421 -0.010381164184205451 0.022165542658286814 0.036702994221079754 -0.010382747238305566 -0.010375503493343959 -0.0065012732852450942 -0.010376688757138916 0.013404203462627695 -0.0070969549024853295 0.012651252331438732 -0.0079020887034741676 0.043011710573296322 0.027737363375090959 -0.0059508064619209948 0.017770312971974983 -0.0079619974626992489 0.035939640072190519 0.014088497330523853 0.029992887912201727 -0.010371983482621298 -0.0064930905890550773 0.010778225577543259
leaf_count=1266 29 34 23 21 20 385 33 136 21 24 24 22 30 224 362 74 37 651 27 20 26 37 23 73 36 20 24 36 21 60 21 29 38 28 20 32 38 510 39 25 35 87 24 27 39 112 71 32 34 87 23 112 20 30 391 29 240 25 35 21 63 221 41
internal_value=0 0.40324 2.60968 0.344693 -0.117879 0.529649 0.769727 1.03606 2.16863 0.803122 1.0566 0.881798 1.95794 -0.277983 -0.154384 0.125803 -0.276864 -0.435266 0.135952 -0.119586 1.5079 -0.0490477 0.710405 0.892589 1.17133 0.887952 -0.0795515 -0.243012 0.70342 1.32977 0.882106 1.83662 2.75219 0.545515 2.40489 2.8812 3.64672 -0.304465 0.195736 0.967183 2.24938 -0.512236 0.411878 1.33708 0.262589 -0.386122 0.286564 0.813342 0.222392 0.0918477 0.457609 -0.249207 2.67189 -0.685442 -0.353175 2.78971 -0.408448 -0.235745 0.0928712 0.884483 0.345214 -0.367345 -0.203089
internal_count=6398 2072 52 2020 585 1435 1026 773 41 662 526 502 120 4326 3060 1524 907 1536 464 437 75 253 617 543 434 398 409 109 375 168 148 88 67 382 111 90 70 544 207 99 60 108 360 90 63 216 104 90 66 270 183 140 43 1072 421 49 870 646 406 150 125 256 104
shrinkage=0.01


Tree=6
num_leaves=64
num_cat=0
split_feature=4 6 4 0 4 6 4 2 6 4 1 2 4 2 2 4 4 0 4 2 2 2 1 4 2 1 2 4 2 4 4 2 4 6 4 3 1 4 0 2 2 0 1 2 4 1 6 2 1 2 2 4 2 3 4 2 2 2 4 6 2 1 3
split_gain=22.5643 9.10283 6.66304 6.01592 7.67724 5.78692 5.78634 10.268 12.4196 15.2641 7.13219 6.88415 7.52778 9.35566 8.03416 5.52772 8.243 12.2248 10.1127 5.22361 5.84249 11.725 7.88133 7.2357 4.82048 4.43045 15.4309 6.04 4.14157 4.09857 4.02969 7.74394 12.7794 7.5811 3.9809 3.92582 3.89197 5.14507 3.52582 3.34438 5.92894 10.6764 5.28252 5.11048 4.60461 3.15931 3.02293 2.96169 4.15794 4.22814 8.28595 2.95496 4.14057 4.37362 6.30286 2.80674 7.84689 2.81427 2.63143 7.12039 12.8198 2.62566 3.7868
threshold=0.85100681710000015 2.7370892179000008 0.92062568540000012 0.45000000000000007 1.3946389168000002 3.6736043311500004 1.1323337633500001 0.61415587215000012 3.5348264453000007 0.96327394470000016 0.25000000000000006 0.76219253340000004 1.0709026656500003 1.2927683248000001 0.81643276725000014 0.64423700765000003 0.73830691915000013 0.75000000000000011 0.73573696605000005 0.5264859085500001 1.2014310930000003 1.1038285555000003 1.3500000000000003 0.64980130230000011 0.90605599730000008 0.15000000000000005 1.1684658669500003 0.74494161945000015 0.49717944575000006 0.86321161800000012 0.6962339660500001 0.60955921310000016 0.68884259295000017 2.9142135623500005 0.66396317935000015 0.5468997376000001 0.35000000000000003 0.71906591120000007 1.0000000180025095e-35 1.3453623846500002 1.1201283321500002 0.8500000000000002 0.95000000000000007 1.5699322445500001 0.9965202873000002 1.0000000180025095e-35 3.0811388301000004 1.0525266275000003 0.75000000000000011 0.87016519570000017 0.84502216880000003 0.96327394470000016 1.2278028894000002 0.38710458850000007 1.1513691081000001 0.68305376630000014 0.75477642855000004 -1.0000000180025095e-35 0.66790346545000012 2.7370892179000008 0.56981350000000008 0.8500000000000002 0.32394512250000007
decision_type=2 2 2 2 2 2 2 2 2 2 2 2 2 2 2 2 2 2 2 2 2 2 2 2 2 2 2 2 2 2 2 2 2 2 2 2 2 2 2 2 2 2 2 2 2 2 2 2 2 2 2 2 2 2 2 2 2 2 2 2 2 2 2
left_child=15 2 -2 4 29 6 7 8 10 -10 -5 -9 14 -14 -13 45 17 18 58 -19 21 23 -22 -21 -8 26 27 -18 -6 -3 31 -25 33 34 -33 -26 37 46 -27 40 47 42 -42 -41 -45 55 -32 48 49 50 -16 -7 53 -53 -55 57 -57 -1 59 60 -17 -47 -63
right_child=1 3 -4 5 28 51 24 11 9 -11 -12 12 13 -15 39 16 25 19 -20 20 22 -23 -24 30 35 38 -28 -29 -30 -31 36 32 -34 -35 -36 -37 -38 -39 -40 43 41 -43 -44 44 -46 61 -48 -49 -50 -51 -52 52 -54 54 -56 56 -58 -59 -60 -61 -62 62 -64
leaf_value=0.0091948556113035217 0.0083325420621783788 0.014530282075787562 0.04530137736955217 -0.0045228410931601633 0.027759744990245028 -0.0079888531764589141 -0.010397394219512036 -0.0033135213995469184 0.019218115055653916 0.073664465277784322 0.028932166372077756 0.028938513538570427 0.0095166577169731436 0.048809725695546979 -0.01037574754363076 -0.010375037882029271 0.02301508608782776 -0.0064563766653810972 0.027795655167263743 0.037158089286057919 -0.010370873145430259 0.03885666029504569 0.023864520368724173 0.043098783884881434 0.0010194348238026743 0.01522572176321676 0.046693139466583732 -0.0041014397045405857 0.0002480306251186683 -0.0045543389134186677 0.014443042721555086 0.0009991073213468499 0.041659504350224412 -0.010384148383870142 0.030288747717045112 0.020454210095538668 -0.0051028937530821737 0.023864296068537082 -0.0062239038786376958 -0.010386270712765678 0.0473228603119943 0.0026268088522857533 0.014326033114667356 0.00038460822741225828 0.029798248711700198 -0.0078965685281428243 -0.010375913107783144 -0.010382377514526166 0.02212918127781183 -0.0045797958291884308 0.036001039530993297 0.030329980461701458 -0.010394980649958467 -0.0061046381795770901 0.021772877082235745 0.03157136209416507 -0.0043796645763187194 -0.010365804020487136 -0.0053436876720635998 -0.0042571541281573016 0.045333620826580739 0.007604095907176203 -0.010376976819128117
leaf_count=30 29 34 23 48 35 120 83 162 35 22 28 42 42 28 20 22 26 74 30 23 84 36 25 21 143 22 20 278 26 490 23 25 27 68 27 34 107 41 1190 83 32 63 22 50 21 946 36 40 34 96 23 20 46 66 32 28 49 77 688 142 25 78 58
internal_value=0 0.397557 2.52135 0.340011 -0.116868 0.521588 0.686521 0.889796 2.22162 3.99917 0.797274 0.64993 0.907508 2.53161 0.692658 -0.275975 -0.153148 0.124248 -0.274858 0.698344 0.875978 1.14659 -0.241175 0.871438 0.00416962 -0.432703 0.126737 -0.177393 1.6268 -0.330356 0.691498 1.29975 0.870067 0.130012 1.64646 0.486431 0.193236 0.95013 -0.58229 0.501092 0.798801 1.73452 3.41182 -0.139825 0.882942 -0.576533 -0.067265 0.26938 0.565701 0.160624 1.5272 -0.154545 0.296118 0.813837 0.357128 0.0802265 0.868754 -0.48768 -0.380052 0.180397 1.96877 -0.687272 0.00263612
internal_count=6398 2072 52 2020 585 1435 1151 891 133 57 76 758 596 70 526 4326 3060 1524 907 617 543 434 109 398 260 1536 324 304 61 524 375 168 147 120 52 177 207 100 1212 484 330 117 54 154 71 1266 59 213 173 139 43 284 164 118 98 184 77 107 877 189 47 1082 136
shrinkage=0.01


Tree=7
num_leaves=64
num_cat=0
split_feature=4 6 5 4 4 2 5 5 5 4 6 4 2 1 2 4 5 2 2 5 5 2 2 5 2 4 3 1 4 1 5 2 4 4 2 2 5 5 2 2 4 1 5 4 6 2 5 4 4 4 3 2 1 4 1 3 5 5 2 5 4 4 3
split_gain=22.0952 8.65421 6.26648 5.46769 8.11118 7.59504 10.3047 7.54225 16.1807 8.66108 8.55564 5.85152 6.69464 5.03521 5.78751 10.0536 4.6155 8.71167 15.4171 12.3108 9.18266 7.47687 27.5772 4.9843 6.38572 4.97697 4.29248 5.65957 8.04027 9.15176 8.7703 8.05605 9.9496 4.65542 4.6029 8.0109 5.37805 5.28591 5.50071 8.03305 5.4689 8.4725 4.09843 6.12616 12.3103 6.18377 6.14252 5.51665 12.0901 5.45721 10.2584 5.40528 3.90107 3.85015 3.64722 3.5907 3.57638 6.17118 3.53042 4.18673 5.52095 6.42429 3.45029
threshold=0.85100681710000015 2.7370892179000008 0.46610015310000003 0.64423700765000003 0.73830691915000013 0.51082032695000013 0.4101828815000001 0.34190638865000006 0.33234017865000004 0.83442184190000013 3.6736043311500004 0.65225292890000008 0.63957989360000012 1.0000000180025095e-35 0.81028542060000019 0.79846184760000016 0.39918666825000004 1.0366712572000003 1.0857024993500002 0.50074937610000014 0.52796774895000009 1.3682790238000002 1.2927683248000001 0.39755502265000014 0.85275287535000011 0.8567548786000001 0.42408725105000006 0.35000000000000003 1.1323337633500001 1.1500000000000001 0.38223027470000009 0.76219253340000004 0.98762487430000012 1.1513691081000001 1.3004806581500001 1.1505433178000002 0.32733766590000007 0.32870958950000001 0.5774404097000001 0.52291243120000008 0.92062568540000012 0.35000000000000003 0.36918807530000003 0.67924514150000015 2.5476205269500007 0.64541648675000007 0.39465161815000005 0.71495968790000008 0.71906591120000007 0.72033623565000016 0.39993749025000008 0.75931709950000015 0.25000000000000006 0.94970634370000007 0.25000000000000006 0.37067024925000008 0.33113433635000006 0.36159368805000008 0.68030320240000008 0.31456317920000004 0.68719583335000012 0.67124375630000011 0.39993749025000008
decision_type=2 2 2 2 2 2 2 2 2 2 2 2 2 2 2 2 2 2 2 2 2 2 2 2 2 2 2 2 2 2 2 2 2 2 2 2 2 2 2 2 2 2 2 2 2 2 2 2 2 2 2 2 2 2 2 2 2 2 2 2 2 2 2
left_child=3 2 -2 -1 5 6 -5 8 9 -6 54 12 -7 14 -9 -16 23 19 -19 -18 -21 22 -20 25 -25 -3 34 33 29 31 -30 -29 -33 -28 35 37 -37 40 39 62 -27 53 47 44 -44 -45 49 58 -49 50 51 -47 -48 -42 -11 -46 -50 -58 59 -13 61 -61 -39
right_child=1 16 -4 4 7 11 -8 13 -10 10 -12 42 -14 -15 15 -17 17 18 21 20 -22 -23 -24 24 -26 26 27 28 30 -31 -32 32 -34 -35 -36 36 -38 38 -40 -41 41 -43 43 45 55 46 52 48 56 -51 -52 -53 -54 -55 -56 -57 57 -59 -60 60 -62 -63 -64
leaf_value=-0.0057386197516038021 0.038502136406392294 0.022598775038049967 0.0023151885759552437 -0.0072655317795940642 -0.0047216107686930773 0.042761735258500959 0.031864075661844432 -0.0052178667830318753 0.04087219924429001 0.012274131233496372 -0.010376197970955596 -0.010374385534194553 0.0081281180572691653 -0.0084191202604668534 0.036244283677421579 -0.010381745068991241 -0.0063938172581635257 0.049008771540710039 0.00031027528322414937 0.035732570615544086 -0.0023348539122448365 -0.0055745571612732733 0.059355563587585258 0.044620783516971192 0.0029852286547218231 -5.797163900718891e-05 -0.0071984850843596713 0.0026973039539279786 -0.006797648527956425 0.002152125082266186 0.026898937192391351 0.020197795321718143 0.059346990045305137 0.013429849020317321 -0.0079507180099700099 0.0017140688002061177 0.034138288001609174 0.011059334358923601 -0.0068770613366337576 0.033403394588185392 0.0222696862308303 0.038391218189574125 0.041503693057183107 -0.010377780325314716 0.015140453074056153 0.031771653919021745 0.015023270168190231 0.039848574895087592 -0.010378149440011751 -0.0010697564898740556 0.050164017755529325 0.0041049413407722203 -0.010392250173344966 -0.0037227410916727465 0.040264867727930705 -0.010386776560485516 0.024915432228081028 -0.010379747010107106 -0.0066685742983288825 0.0065075537232199953 -0.0041820885845828279 0.044168261098603313 -0.01038053273683103
leaf_count=1266 32 42 20 377 362 21 20 114 27 23 26 44 60 905 30 23 506 23 103 33 32 114 27 20 20 106 89 21 74 44 27 35 33 46 115 22 35 38 246 24 26 31 36 79 33 27 22 28 47 61 22 77 72 42 26 29 32 25 310 34 47 21 46
internal_value=0 0.391968 2.43826 -0.27397 -0.1519 0.12274 -0.522317 -0.430127 0.139155 -0.114671 1.48228 0.34315 1.70775 -0.681379 0.17597 1.61353 0.335399 0.0334279 0.810251 -0.342281 1.71734 0.422916 1.28093 0.545493 2.35268 0.481207 0.413665 0.869463 1.3468 2.1885 0.26056 3.12454 3.96424 -0.00143498 0.177713 0.357633 2.18199 0.159782 -0.238583 0.740815 0.822488 1.70083 0.23545 0.608208 1.76864 0.286169 0.650158 -0.0624935 0.894368 1.20597 1.82798 1.1184 -0.447855 0.614782 2.7058 0.317225 0.0543521 0.948604 -0.343601 0.345346 0.94341 2.09072 -0.0451686
internal_count=6398 2072 52 4326 3060 1524 397 1536 464 437 75 1127 81 1072 167 53 2020 838 267 571 65 244 130 1182 40 1142 1100 369 234 133 101 89 68 135 731 616 57 559 354 108 205 99 1046 458 98 360 281 588 132 187 126 104 94 68 49 62 104 57 456 146 102 55 84
shrinkage=0.01


Tree=8
num_leaves=64
num_cat=0
split_feature=4 6 4 0 4 6 4 2 6 4 1 2 4 2 2 4 4 0 4 2 2 2 1 4 2 4 6 1 2 1 2 4 4 2 4 6 4 6 3 0 1 2 2 0 2 1 1 4 2 1 2 2 2 4 2 3 4 2 2 2 2 1 3
split_gain=21.6359 8.2351 6.06649 5.77634 7.35348 5.57478 5.57474 9.67931 11.2694 13.1508 6.69723 6.52236 6.95194 8.42926 7.56327 5.40713 7.98187 11.8373 9.77783 4.99453 5.60155 10.7751 7.64867 6.50452 14.2214 9.91045 6.15736 4.91542 4.69441 4.34561 14.1811 5.79436 3.95785 3.84365 3.78931 8.49431 7.36287 4.27938 3.73492 3.4366 3.14699 3.13963 5.50864 9.76798 5.04216 4.58437 4.39302 6.28559 2.90382 3.95276 4.17169 3.13826 5.86283 2.89693 4.00597 4.05633 6.09151 2.77142 2.75304 7.4765 2.78883 2.6229 3.74102
threshold=0.85100681710000015 2.7370892179000008 0.92062568540000012 0.45000000000000007 1.3946389168000002 3.6736043311500004 1.1323337633500001 0.61415587215000012 3.5348264453000007 0.96327394470000016 0.25000000000000006 0.76219253340000004 1.0709026656500003 1.2927683248000001 0.81643276725000014 0.64423700765000003 0.73830691915000013 0.75000000000000011 0.73573696605000005 0.5264859085500001 1.2014310930000003 1.1038285555000003 1.3500000000000003 0.6962339660500001 0.60492762645000009 0.68884259295000017 2.9142135623500005 0.35000000000000003 0.90605599730000008 0.15000000000000005 1.1684658669500003 0.74494161945000015 0.86321161800000012 0.49717944575000006 0.71652412240000007 3.0811388301000004 0.72616072340000015 2.7370892179000008 0.5468997376000001 1.0000000180025095e-35 1.0000000180025095e-35 1.3453623846500002 1.1201283321500002 0.8500000000000002 1.5699322445500001 0.95000000000000007 1.5500000000000003 0.95837650475000002 1.0525266275000003 0.75000000000000011 0.95147909750000015 0.84502216880000003 0.87016519570000017 0.96327394470000016 1.2278028894000002 0.38710458850000007 1.1513691081000001 0.92110665570000017 0.68305376630000014 0.75477642855000004 -1.0000000180025095e-35 0.8500000000000002 0.32394512250000007
decision_type=2 2 2 2 2 2 2 2 2 2 2 2 2 2 2 2 2 2 2 2 2 2 2 2 2 2 2 2 2 2 2 2 2 2 2 2 2 2 2 2 2 2 2 2 2 2 2 2 2 2 2 2 2 2 2 2 2 2 2 2 2 2 2
left_child=15 2 -2 4 32 6 7 8 10 -10 -5 -9 14 -14 -13 40 17 18 -17 -19 21 23 -22 24 -21 26 27 -26 -8 30 31 -18 -3 -6 37 -36 -37 -25 -30 -31 58 42 48 45 -43 -44 47 -46 49 50 51 -16 -53 -7 55 -55 -57 -54 60 -60 -1 -42 -63
right_child=1 3 -4 5 33 53 28 11 9 -11 -12 12 13 -15 41 16 29 19 -20 20 22 -23 -24 34 25 -27 -28 -29 38 39 -32 -33 -34 -35 35 36 -38 -39 -40 -41 61 44 43 -45 46 -47 -48 -49 -50 -51 -52 52 57 54 -56 56 -58 -59 59 -61 -62 62 -64
leaf_value=0.0091308662601400394 0.0076704648782742356 0.014062780374912764 0.042114666796784439 -0.0044928516885254068 0.026479927504197125 -0.0079741867483646024 -0.010393564683662957 -0.0032722820784747511 0.018520946915842051 0.067718564409540799 0.027618508185365962 0.027737041604093422 0.0091208307961965981 0.045680201106190026 -0.010372782225436313 -0.0037802309848847262 0.022210402181254713 -0.0064084678662235089 0.026965230568264258 0.050669383477001617 -0.010368455721453911 0.036832863431691905 0.02309294184493144 0.016332111846042278 -0.00060885144492085947 0.037693099704145056 -0.0066237257274777139 0.028833698402852423 0.00092875936019045074 0.014856140903243942 0.043490801646208006 -0.0040648353065353762 -0.004531313557663205 0.0001962820263175093 -0.01037436102579721 0.042554391290419755 0.0055741722119034311 -0.01037468177758032 0.019682861922217444 -0.0061746265748994838 -0.0078600612580556461 -0.010382769883430414 0.043930839245546853 0.0024536790616332292 3.7669157489069354e-05 0.01376163050239216 -0.010388031224303859 0.03759521502627014 -0.010382593835425089 0.021326714122833077 -0.010387371495865907 0.034158843285017226 -0.010393345377637619 0.028800854879933092 -0.010389875521426135 -0.0061139933390012471 0.021098636828041216 0.016042511831131062 0.030567875989881515 -0.0043193957287296818 -0.010359960208794329 0.0075723400895631454 -0.010370951588896147
leaf_count=30 29 34 23 48 35 120 83 162 35 22 28 42 42 28 20 877 26 74 30 26 84 36 25 21 28 28 75 34 143 22 20 278 490 26 39 25 35 87 34 1190 946 83 32 63 26 22 23 22 40 34 52 23 23 20 46 66 32 21 28 49 77 78 58
internal_value=0 0.386462 2.35972 0.330847 -0.117289 0.50746 0.667921 0.86564 2.1416 3.78698 0.779081 0.632502 0.879527 2.41235 0.672241 -0.271982 -0.150679 0.12124 -0.27319 0.682354 0.853323 1.11497 -0.241683 0.849114 1.54003 0.962135 0.373259 1.57302 -0.000885596 -0.427583 0.125548 -0.174776 -0.328699 1.56861 0.190785 0.932011 2.14634 -0.507331 0.469056 -0.577165 -0.571177 0.485506 0.77005 1.65614 -0.137854 3.21273 0.871564 1.75078 0.258512 0.549137 0.152566 0.848228 1.37196 -0.156183 0.287027 0.788259 0.34492 0.218656 0.0854354 0.863189 -0.48187 -0.682692 0.00834074
internal_count=6398 2072 52 2020 585 1435 1151 891 133 57 76 758 596 70 526 4326 3060 1524 907 617 543 434 109 398 191 165 137 62 260 1536 324 304 524 61 207 99 60 108 177 1212 1266 484 330 117 154 54 71 48 213 173 139 87 67 284 164 118 98 44 184 77 107 1082 136
shrinkage=0.01


Tree=9
num_leaves=64
num_cat=0
split_feature=4 6 5 0 5 5 6 2 2 0 1 5 4 4 4 0 5 5 5 4 6 5 1 2 4 4 2 2 2 1 4 1 2 2 2 5 5 1 1 1 5 4 5 2 2 5 2 6 4 4 5 5 4 4 1 4 1 6 1 2 2 5 2
split_gain=21.1877 7.84399 5.76211 5.62103 8.02394 7.19551 7.77775 7.31605 5.96604 7.2277 11.7165 5.51316 10.5366 5.35477 6.84277 8.4558 11.3801 7.48812 15.2949 8.45139 8.17123 5.26429 4.95231 5.47559 9.30223 4.85483 4.85299 5.40106 10.027 7.4255 6.28544 4.35302 5.72107 4.17377 5.82017 9.95365 8.70344 8.28328 6.91891 11.1633 8.82991 6.63625 9.78167 4.8895 4.0276 13.5191 4.49809 3.92194 3.84392 3.61639 8.06645 6.37656 7.2631 6.67336 3.78123 4.74519 3.35298 2.89558 2.64149 4.42714 7.31962 2.54557 2.44247
threshold=0.85100681710000015 2.7370892179000008 0.46610015310000003 0.45000000000000007 0.50074937610000014 0.42124814125000004 3.6736043311500004 0.61415587215000012 0.76219253340000004 0.65000000000000002 0.55000000000000016 0.35993054215000003 1.1513691081000001 0.62999491665000018 0.73830691915000013 0.75000000000000011 0.41297699250000003 0.34190638865000006 0.33234017865000004 0.83442184190000013 3.6736043311500004 0.52867738400000008 1.0000000180025095e-35 0.81028542060000019 0.79846184760000016 0.64423700765000003 0.5264859085500001 1.2014310930000003 1.1038285555000003 1.3500000000000003 0.64980130230000011 0.45000000000000007 0.98282118150000009 0.81643276725000014 1.0085571258000001 0.38639349505000004 0.32687917365000008 1.0500000000000003 1.2500000000000002 0.95000000000000007 0.40024984395000007 0.88185801220000004 0.36228425435000006 1.1465982214500003 0.57527161085000011 0.37887992245000007 0.51508485510000013 3.0811388301000004 0.63615256160000011 0.6962339660500001 0.32155866620000001 0.36823902775 0.66396317935000015 0.67924514150000015 0.35000000000000003 0.71906591120000007 0.25000000000000006 3.0811388301000004 1.0000000180025095e-35 0.68305376630000014 0.75477642855000004 0.3582596755500001 1.2673790896000001
decision_type=2 2 2 2 2 2 2 2 2 2 2 2 2 2 2 2 2 2 2 2 2 2 2 2 2 2 2 2 2 2 2 2 2 2 2 2 2 2 2 2 2 2 2 2 2 2 2 2 2 2 2 2 2 2 2 2 2 2 2 2 2 2 2
left_child=13 2 -2 4 47 6 7 44 -9 10 -10 12 31 58 15 16 48 18 19 -16 56 -6 23 -19 -25 -17 -27 28 30 -29 -28 -8 -33 -11 36 37 -35 41 39 43 -40 -36 -43 -37 45 46 -5 -3 -15 50 -32 -52 -53 -54 55 57 -21 -51 59 -1 -61 -56 -7
right_child=1 3 -4 5 21 62 11 8 9 33 -12 -13 -14 14 17 25 -18 22 -20 20 -22 -23 -24 24 -26 26 27 29 -30 -31 49 32 -34 34 35 38 -38 -39 40 -41 -42 42 -44 -45 -46 -47 -48 -49 -50 54 51 52 53 -55 61 -57 -58 -59 -60 60 -62 -63 -64
leaf_value=-0.0072862990297517232 0.035950295922766495 0.014431834078368724 0.0019210381210088389 0.020100242652758601 0.037771540986449345 -0.0052395188950013086 -0.010372477312496955 -0.0025146504156896409 0.053385394738704746 0.023679666334213128 0.0087321659188517465 -0.010380569227211849 0.038356912599002896 0.013422254139449892 -0.0046706172790678098 -0.0069658045117951617 0.025477545926038438 -0.0051859999703608353 0.039096241912744557 0.012073910242686683 -0.010370479417331003 0.0019275733225384408 -0.008388170931686716 0.034031627155515436 -0.010381429337456855 -0.0063824757208676931 0.033885644931771403 -0.010364655805050716 0.035254717026083474 0.022376594900316939 0.043048125031497568 0.025781547350471511 -0.0039716540405825961 0.025325119258948307 -0.010392315736980304 0.00980454471843277 -0.010389238103144087 -0.0061419196605260948 0.059334309110624428 -0.010407798725752142 0.013635274688652339 0.0093772946887183458 0.050260720397888266 0.03986237912139292 0.03562767381437084 -0.004692135690868504 0.052035792959203485 -0.0041831183872704245 -0.0043805686644880415 0.013866223581820219 -0.0056167992110796004 -0.010396145183257589 0.042971557631611514 0.01044633083859641 0.007647698326749241 0.022739230069753348 0.038649283723769398 -0.010366673296401991 -0.0071504189433131953 0.032506839498405805 -0.0034351994681996222 -0.010379626753892401 0.005117522701799309
leaf_count=97 32 34 20 25 20 215 67 146 25 38 41 108 20 37 362 86 37 114 27 23 26 21 905 30 23 74 23 84 36 25 20 29 43 21 24 28 102 131 22 36 22 53 21 30 33 47 20 510 922 23 60 21 29 38 31 41 26 36 925 26 43 76 88
internal_value=0 0.381082 2.28568 0.326396 -0.116276 0.499842 0.689851 0.926354 0.724838 0.94954 2.5484 -0.10037 0.512956 -0.269995 -0.161163 0.070705 -0.251724 -0.425019 0.142292 -0.109808 1.45745 2.00639 -0.677325 0.169554 1.54163 0.51123 0.670997 0.83782 1.09211 -0.239886 0.833696 -0.034198 0.837925 0.745059 0.613849 0.939161 -0.372728 0.266496 2.0242 1.22683 3.68679 1.38373 2.12179 2.62248 2.05981 1.50557 3.44359 -0.299692 -0.369986 0.663027 1.22689 0.80253 1.66373 2.47124 0.188374 0.927812 2.62652 -0.062413 -0.601069 0.0292929 1.06684 -0.508642 -0.220101
internal_count=6398 2072 52 2020 585 1435 1132 865 740 594 66 267 159 4326 3235 1699 996 1536 464 437 75 41 1072 167 53 703 617 543 434 109 398 139 72 528 490 367 123 229 138 94 44 98 74 58 125 92 45 544 959 375 168 148 88 67 207 100 49 59 1091 166 69 107 303
shrinkage=0.01


Tree=10
num_leaves=64
num_cat=0
split_feature=4 6 5 5 5 3 3 4 5 4 4 6 4 4 0 0 6 3 5 5 5 6 1 4 4 4 5 4 4 4 4 3 4 4 4 1 3 6 6 5 6 1 4 5 5 5 4 4 5 1 4 4 4 4 1 4 6 6 1 4 4 0 5
split_gain=22.9887 6.86135 8.76334 5.89773 5.80946 7.97926 7.53146 5.27415 4.93021 11.5396 10.4545 7.07883 4.997 4.85063 6.67378 4.68869 4.6137 5.79052 7.31371 4.32515 7.75556 7.23148 6.63874 5.62169 4.17324 4.42474 4.13183 5.55484 8.44461 3.64276 6.27329 4.81753 3.52093 3.41541 4.50485 3.19998 3.13422 2.84843 2.68856 2.80052 2.6505 5.04833 2.62266 2.62376 4.96262 8.59083 4.88 10.0919 3.49403 3.68915 3.45847 4.90581 3.09222 3.09209 5.34701 2.87297 2.46294 2.97972 2.45796 3.50752 2.64972 2.22132 4.07756
threshold=0.94671025990000002 2.9142135623500005 0.48682537440000007 0.49446915410000003 0.39918666825000004 0.55670399120000014 0.39956225560000008 1.4314212996 0.37887992245000007 0.99312200385000005 1.1965044489500001 3.5348264453000007 0.98762487430000012 1.6062732070000003 0.8500000000000002 0.75000000000000011 3.5348264453000007 0.44715768680000006 0.35874779520000005 0.41139993640000011 0.38736287360000005 3.0811388301000004 0.25000000000000006 0.72033623565000016 0.46481573725000008 0.61136786065000004 0.42673174980000006 0.80067120560000016 0.77273830175000013 0.86119871275000015 0.8868005911000002 0.39993749025000008 0.9965202873000002 0.76843056615000005 0.75255075880000011 1.1500000000000001 0.38710458850000007 2.7370892179000008 3.5348264453000007 0.51956632320000018 2.3427788601500006 0.55000000000000016 0.61684346900000009 0.36034699480000004 0.33113433635000006 0.33786084520000004 0.65478215345000013 0.63615256160000011 0.36823902775 0.65000000000000002 0.66557934455000012 0.69142997550000007 0.87966407465000018 0.76420432840000008 0.75000000000000011 0.86577723415000019 3.5348264453000007 3.2394512253000003 0.95000000000000007 0.84010403075000017 0.68265857260000007 0.75000000000000011 0.34445608535000005
decision_type=2 2 2 2 2 2 2 2 2 2 2 2 2 2 2 2 2 2 2 2 2 2 2 2 2 2 2 2 2 2 2 2 2 2 2 2 2 2 2 2 2 2 2 2 2 2 2 2 2 2 2 2 2 2 2 2 2 2 2 2 2 2 2
left_child=15 2 -2 4 7 6 -6 8 12 11 -11 -10 36 14 38 26 -14 32 -19 20 24 22 -22 -23 -17 -26 58 28 37 33 -31 -32 -18 34 -25 61 -3 -28 39 -5 41 -24 -27 44 46 -46 47 -44 -45 50 -50 -52 53 54 -47 56 57 -53 -1 60 -60 -34 -63
right_child=1 3 -4 13 5 -7 -8 -9 9 10 -12 -13 16 -15 -16 19 17 18 -20 -21 21 23 40 29 25 42 27 -29 -30 30 31 -33 35 -35 -36 -37 -38 -39 -40 -41 -42 -43 43 48 45 52 -48 -49 49 -51 51 55 -54 -55 -56 -57 -58 -59 59 -61 -62 62 -64
leaf_value=-0.0043217829927063014 0.048065848018974136 0.014364241454565906 0.0020331736863365333 0.023289833569437333 0.020996454225652248 0.025256848314505732 -0.0043346941718263986 -0.010399074472718969 0.057173260964721945 -0.0060055469251994401 0.034387297707562818 0.018663154570004972 -0.002434159215555929 0.037605868447170787 0.034997950640906078 0.018452161866996254 0.028679364996559698 0.0511570127430407 0.010366108726101724 -0.008643852635441757 0.020632016165789406 0.034394010627450289 -0.01038830604990979 0.00015083099970239266 -0.008147048799434644 0.018981964286398593 0.017616020005164774 -0.0055973255224085463 0.045268341204231705 0.043619371525851929 -0.010392379346333747 0.021605117749750817 -0.003187428961928225 -0.0053306305648587104 0.033902431700032966 0.023154178207057674 -0.0075110712956014515 -0.010381054099547546 -0.010392458790717955 -0.0008488853117488345 -0.0082323650192657506 0.0227890327227941 -0.0033915544748381837 -0.010371060482469842 0.038902378230245956 -0.00068896927075116714 -0.0036444295848257254 0.041474074945473519 -0.01037774715517943 -0.0082601393474452771 0.024253083989428898 -0.0054041513932387491 0.021179211839462263 -0.010382163501910225 0.024628817215895993 0.016967878001126917 -0.010370600902730913 0.011235178629931992 0.011143154450818336 0.020348717588307048 -0.01037468540151607 -0.0013830576976134917 0.028579278199980771
leaf_count=2760 20 21 20 24 35 28 425 43 23 61 23 29 69 20 23 31 20 20 22 167 37 30 26 27 271 20 20 60 21 20 21 34 77 59 20 24 98 21 26 27 131 26 42 156 22 89 416 21 50 135 31 58 26 44 31 30 53 68 26 26 43 30 21
internal_value=0 0.579818 2.57765 0.503603 0.376957 -0.05488 -0.233779 0.723474 0.862332 1.71249 0.538854 3.64634 0.571897 1.57646 1.09187 -0.219515 0.940393 1.30817 2.90642 -0.0325535 0.0353361 0.667223 -0.00850253 1.36932 -0.137998 -0.175867 -0.359998 0.60349 1.72324 1.00604 1.87456 0.955715 0.860063 0.34651 1.42078 0.58237 -0.339258 0.337074 0.352922 1.02581 -0.421071 0.596421 -0.0488398 -0.0784561 0.141021 0.81599 -0.158077 1.23019 -0.345297 -0.0954981 0.244465 0.510535 0.445772 0.171273 0.613055 0.205349 -0.0606772 0.349824 -0.402072 0.433897 -0.211442 0.249528 1.08948
internal_count=6398 1229 40 1189 1069 488 460 581 538 136 84 52 402 120 100 5169 283 214 42 2192 2025 431 220 211 1594 1563 2977 122 62 181 75 55 172 106 47 152 119 41 77 51 183 52 1292 1272 691 212 479 63 581 425 290 240 190 164 120 209 179 126 2855 95 69 128 51
shrinkage=0.01


Tree=11
num_leaves=64
num_cat=0
split_feature=3 2 5 5 2 3 1 2 1 1 3 6 0 2 3 3 6 5 5 2 2 6 5 3 3 2 6 5 1 2 6 1 5 2 5 5 6 1 5 5 2 2 6 2 3 5 1 5 0 6 3 2 1 2 1 2 2 5 2 2 5 5 6
split_gain=13.6744 10.4435 8.08652 13.7806 14.6259 7.04748 10.5043 8.60555 5.37429 6.05753 12.2328 6.8529 5.23951 6.12768 5.25397 6.31362 5.30775 5.34293 6.99112 5.59688 6.83892 4.40333 5.85391 16.2689 12.8742 10.021 11.1618 6.37129 5.89881 7.89571 4.82776 4.3941 3.95563 4.08742 3.91315 3.90885 6.52807 7.81537 4.51141 3.85994 4.6066 12.0691 3.58475 3.56115 7.27644 15.8127 3.34513 3.68191 2.92687 4.30611 2.914 2.89221 2.68874 2.53923 12.3466 3.13833 6.82584 3.21683 4.13652 3.02244 2.52357 1.6732 1.66003
threshold=0.52428824425000009 0.81028542060000019 0.31224887340000002 0.32031230955000006 1.2014310930000003 0.57007084480000014 0.35000000000000003 0.41870318935000006 1.3500000000000003 1.5500000000000003 0.39993749025000008 3.2394512253000003 0.75000000000000011 0.67523140215000022 0.34603945240000006 0.44704585545000003 3.2394512253000003 0.39855990275000003 0.39006409205000009 0.43553113700000007 0.53648151425000012 3.0811388301000004 0.38736287360000005 0.42408725105000006 0.39956225560000008 1.1465982214500003 3.5348264453000007 0.39673660840000008 0.55000000000000016 1.3791981319500002 3.3903632027500006 0.15000000000000005 0.34583229905000007 0.62873876790000016 0.49446915410000003 0.35874779520000005 3.3903632027500006 0.45000000000000007 0.35078482710000009 0.39755502265000014 1.8090022739500002 1.5984367243500002 3.3903632027500006 0.85275287535000011 0.38053829055000005 0.37396494620000015 0.35000000000000003 0.39064047875000002 0.8500000000000002 3.0811388301000004 0.44715768680000006 1.1625671946000005 0.65000000000000002 1.2927683248000001 0.8500000000000002 1.0789172716000002 1.0447786740000002 0.41755238765000008 0.95147909750000015 0.8676476632500002 0.52273314685000016 0.40466034670000001 3.0811388301000004
decision_type=2 2 2 2 2 2 2 2 2 2 2 2 2 2 2 2 2 2 2 2 2 2 2 2 2 2 2 2 2 2 2 2 2 2 2 2 2 2 2 2 2 2 2 2 2 2 2 2 2 2 2 2 2 2 2 2 2 2 2 2 2 2 2
left_child=1 12 31 4 -4 6 7 60 21 10 -10 -12 34 14 48 16 46 18 19 -18 -21 43 23 35 25 26 52 30 -25 -30 -26 -3 33 -22 -1 36 37 -23 -38 40 41 -11 -27 44 45 -5 47 -16 49 -14 62 -39 -24 55 -55 56 57 -29 59 -59 -2 -49 -15
right_child=5 2 3 8 -6 -7 -8 -9 9 39 11 -13 13 50 15 -17 17 -19 -20 20 32 22 24 28 27 42 -28 53 29 -31 -32 -33 -34 -35 -36 -37 38 51 -40 -41 -42 -43 -44 -45 -46 -47 -48 61 -50 -51 -52 -53 -54 54 -56 -57 -58 58 -60 -61 -62 -63 -64
leaf_value=-0.0044542098816732619 0.036222248102413909 0.011739313275638685 0.053423265352626162 -0.01035311324585292 3.8498980424229554e-06 -0.0040572314309159285 0.041865787480821537 -0.010428815511714382 -0.0034344024396661677 -0.010384902282624047 0.054908225606631403 0.019445045326159462 0.019623476245747611 -0.010368073388574156 -0.007265965608557458 -0.010378885394865107 -0.010389484842826906 -0.0028138592731164992 0.045047142698237036 0.039282206371040636 0.036069035684947924 -0.01036516236256634 -0.010383803431865901 0.040414850863383596 0.002969565356436049 0.028274223045008894 0.039210042809699058 -0.010372991000018277 0.00031328175417312336 0.037273064891593932 0.038060886374025729 -0.0072056263423303868 -0.0024098933048923936 0.0036718258055182945 0.013229415405381284 -0.0066291758623458286 -0.0081397677428938549 0.044021905403659779 0.013224462372881468 -0.010398369630625119 -0.010395560933489225 0.042805169702090709 0.059286801168578665 -0.0037815480004217954 -0.010375096917076601 0.054795383247425875 0.019167864804016548 0.018984443954818245 -0.0053603557517634308 -0.0044364804658233751 0.012890545618770321 0.016142877744983346 0.012346854926636926 0.042847354887372284 -0.0050987084603658353 -0.01038794238867655 0.030266850796928455 0.0024008467710630401 -0.010390713610892071 0.03069401674396198 0.012148879967160449 0.00042556538822007266 -0.0033153293002150665
leaf_count=2541 21 39 29 22 27 40 37 32 41 22 24 36 39 161 92 53 21 38 24 31 23 21 36 24 20 21 28 72 47 22 21 352 35 20 35 388 125 20 36 44 22 25 20 562 33 21 29 29 233 48 24 21 24 20 51 92 20 22 27 20 22 27 246
internal_value=0 -0.0993139 0.16406 0.293931 2.84532 1.42053 2.05465 0.963876 0.221943 1.00505 1.93447 3.38666 -0.281728 0.0138144 0.306234 0.69048 0.933448 1.52922 1.95043 1.46887 1.93556 0.127895 0.315659 0.00293003 0.752863 2.18267 1.17452 0.248546 1.94397 1.18002 2.13803 -0.53595 1.08432 2.14084 -0.41977 -0.33286 0.223685 1.68711 -0.339429 0.17202 0.944008 1.86546 4.31782 -0.232081 0.859577 2.31489 0.257583 -0.0688745 -0.218987 0.620315 -0.498685 2.9907 -0.110642 -0.00693056 0.85609 -0.259991 0.188227 -0.233194 0.571955 1.60616 2.39894 1.01593 -0.608418
internal_count=6398 6246 2497 2106 56 152 112 75 2050 214 101 60 3749 1173 742 422 369 192 154 130 109 1836 1198 704 494 129 88 365 93 69 41 391 78 43 2576 611 223 62 161 113 69 47 41 638 76 43 177 148 320 87 431 41 60 324 71 253 161 141 69 42 43 56 407
shrinkage=0.01


Tree=12
num_leaves=64
num_cat=0
split_feature=3 2 5 5 2 3 2 1 1 1 3 6 0 2 3 3 6 5 5 2 2 1 6 5 3 3 2 6 5 1 2 6 5 6 1 5 5 5 2 2 5 2 2 3 5 1 5 6 0 6 3 1 2 2 1 2 2 5 2 2 6 6 2
split_gain=13.2429 10.2511 7.9283 13.0852 13.2862 6.71288 9.91105 9.5605 5.19846 5.76696 11.447 6.07262 5.16647 6.01415 5.11031 6.15357 5.0701 5.08179 6.36495 5.36639 6.28602 4.31 4.30523 5.67743 15.7061 12.2439 9.14169 10.4431 6.10785 5.41288 7.39214 4.46645 3.85773 6.30317 7.40534 4.41478 3.81903 3.77907 4.44 11.2838 3.77022 3.78482 3.47933 6.98767 14.5562 3.21482 3.60108 3.10652 2.87185 4.13695 2.85126 2.63331 2.60584 2.47425 11.5922 3.10722 6.50738 3.17296 4.01136 2.82971 1.65733 4.65861 1.59725
threshold=0.52428824425000009 0.81028542060000019 0.31224887340000002 0.32031230955000006 1.2014310930000003 0.57007084480000014 0.83609955455000018 0.15000000000000005 1.3500000000000003 1.5500000000000003 0.39993749025000008 3.2394512253000003 0.75000000000000011 0.67523140215000022 0.34603945240000006 0.44704585545000003 3.2394512253000003 0.39855990275000003 0.39006409205000009 0.43553113700000007 0.53648151425000012 0.15000000000000005 3.0811388301000004 0.38736287360000005 0.42408725105000006 0.39956225560000008 1.1465982214500003 3.5348264453000007 0.39673660840000008 0.55000000000000016 1.3791981319500002 3.3903632027500006 0.35874779520000005 3.3903632027500006 0.45000000000000007 0.35078482710000009 0.49446915410000003 0.39755502265000014 1.8090022739500002 1.5984367243500002 0.34583229905000007 0.62873876790000016 0.85275287535000011 0.38053829055000005 0.37396494620000015 0.35000000000000003 0.39064047875000002 3.3903632027500006 0.8500000000000002 3.0811388301000004 0.44715768680000006 0.65000000000000002 1.1625671946000005 1.2927683248000001 0.8500000000000002 1.0789172716000002 1.0447786740000002 0.41755238765000008 0.95147909750000015 0.8676476632500002 3.0811388301000004 3.2394512253000003 0.57527161085000011
decision_type=2 2 2 2 2 2 2 2 2 2 2 2 2 2 2 2 2 2 2 2 2 2 2 2 2 2 2 2 2 2 2 2 2 2 2 2 2 2 2 2 2 2 2 2 2 2 2 2 2 2 2 2 2 2 2 2 2 2 2 2 2 2 2
left_child=1 12 21 4 -4 6 7 -2 22 10 -10 -12 36 14 48 16 45 18 19 -18 -21 -3 42 24 32 26 27 51 31 -26 -31 -27 33 34 -24 -35 -1 38 39 -11 41 -22 43 44 -5 46 -16 -28 49 -14 60 -25 -36 55 -55 56 57 -30 59 -59 -15 -62 -48
right_child=5 2 3 8 -6 -7 -8 -9 9 37 11 -13 13 50 15 -17 17 -19 -20 20 40 -23 23 25 29 28 47 -29 53 30 -32 -33 -34 35 52 -37 -38 -39 -40 -41 -42 -43 -44 -45 -46 -47 62 -49 -50 -51 -52 -53 -54 54 -56 -57 -58 58 -60 -61 61 -63 -64
leaf_value=-0.0044280562402008233 0.031359719032053798 0.011495502162093494 0.050345256185294646 -0.01034947641859503 3.8111756732584744e-06 -0.0040317103162979175 0.040296112496169038 -0.004989748193524165 -0.0034109535275056004 -0.010380927345493953 0.051678301447896383 0.018907154959950802 0.019074928368208687 -0.010364278029280236 -0.0072421815182207114 -0.010374975358664249 -0.010385462587142924 -0.0027930371650002278 0.04277871172114886 0.037509414293551438 0.034537471317653314 -0.0071815339767065745 -0.010361397307054666 -0.010379840144225876 0.038557892462747975 0.0029318023844806963 0.027268554646135104 0.037430866169158007 -0.010369143193253456 0.00031005952778475574 0.035653419013106466 0.036384456894532895 -0.0066036070901396241 -0.008119633520833433 0.041841053417942461 0.012932179593074427 0.012937324666604371 -0.010394252146441969 -0.010391472666947151 0.040733795103070146 -0.0023911454612086545 0.0036227133601099454 -0.0037569404439022447 -0.010371226989509796 0.051562490801535778 0.018640554349556568 0.0004183492372353673 0.055555391011967784 -0.0053333698889425421 -0.0044103021865201436 0.01260973934068012 0.012084231359805089 0.015743665791677512 0.040772101132839335 -0.00507164499878799 -0.010383935731185932 0.029135577624883908 0.002371536985608299 -0.010386676750837162 0.029534690784998319 0.015208701300151872 -0.0062635743401181837 0.018473622293572758
leaf_count=2541 30 39 29 22 27 40 37 45 41 22 24 36 39 161 92 53 21 38 24 31 23 352 21 36 24 20 21 28 72 47 22 21 388 125 20 36 35 44 22 25 35 20 562 33 21 29 27 20 233 48 24 24 21 20 51 92 20 22 27 20 34 212 29
internal_value=0 -0.0984864 0.162016 0.29001 2.74274 1.38769 1.99562 0.93709 0.219105 0.985328 1.88062 3.24909 -0.279672 0.0135872 0.302172 0.678978 0.915889 1.49224 1.89591 1.4342 1.88187 -0.533248 0.126328 0.311397 0.00279699 0.739801 2.11678 1.14977 0.245306 1.89001 1.15529 2.07503 -0.3306 0.22084 1.64381 -0.337124 -0.417208 0.16977 0.925922 1.81445 1.06251 2.07754 -0.230305 0.843557 2.24173 0.254317 -0.0682751 4.10649 -0.217265 0.610463 -0.496012 -0.109703 2.87954 -0.00700189 0.840476 -0.258101 0.185862 -0.231447 0.563044 1.56637 -0.605767 -0.329234 0.996226
internal_count=6398 6246 2497 2106 56 152 112 75 2050 214 101 60 3749 1173 742 422 369 192 154 130 109 391 1836 1198 704 494 129 88 365 93 69 41 611 223 62 161 2576 113 69 47 78 43 638 76 43 177 148 41 320 87 431 60 41 324 71 253 161 141 69 42 407 246 56
shrinkage=0.01


Tree=13
num_leaves=64
num_cat=0
split_feature=3 2 5 5 2 3 1 2 0 2 1 1 3 6 3 3 6 5 5 2 2 1 6 5 3 3 2 6 5 1 2 6 5 6 1 5 5 5 2 2 5 2 2 3 5 1 5 0 6 3 6 1 2 2 2 2 5 2 2 2 5 6 6
split_gain=12.8293 10.0626 7.77375 12.4399 12.1196 6.39987 9.12662 8.22036 5.09417 5.90314 5.03008 5.49493 10.7326 5.41032 4.97151 5.99945 4.84639 4.83811 5.81364 5.15002 5.79271 4.22828 4.20968 5.50765 15.1712 11.6551 8.36588 9.79045 5.85939 4.98042 6.93372 4.14199 3.80725 6.089 7.02764 4.32126 3.72803 3.70082 4.28264 10.5766 3.59662 3.51248 3.4001 6.71709 13.4526 3.09126 3.52262 2.81804 3.97685 2.7905 2.71166 2.57964 2.41141 11.3341 3.07647 6.21076 3.12995 3.89189 2.6535 2.35684 2.30524 1.6545 4.54193
threshold=0.52428824425000009 0.81028542060000019 0.31224887340000002 0.32031230955000006 1.2014310930000003 0.57007084480000014 0.35000000000000003 0.41870318935000006 0.75000000000000011 0.67523140215000022 1.3500000000000003 1.5500000000000003 0.39993749025000008 3.2394512253000003 0.34603945240000006 0.44704585545000003 3.2394512253000003 0.39855990275000003 0.39006409205000009 0.43553113700000007 0.53648151425000012 0.15000000000000005 3.0811388301000004 0.38736287360000005 0.42408725105000006 0.39956225560000008 1.1465982214500003 3.5348264453000007 0.39673660840000008 0.55000000000000016 1.3791981319500002 3.3903632027500006 0.35874779520000005 3.3903632027500006 0.45000000000000007 0.35078482710000009 0.49446915410000003 0.39755502265000014 1.8090022739500002 1.5984367243500002 0.34583229905000007 0.62873876790000016 0.85275287535000011 0.38053829055000005 0.37396494620000015 0.35000000000000003 0.39064047875000002 0.8500000000000002 3.0811388301000004 0.44715768680000006 3.3903632027500006 0.65000000000000002 1.2927683248000001 1.3791981319500002 1.0789172716000002 1.0447786740000002 0.41755238765000008 0.95147909750000015 0.8676476632500002 1.1625671946000005 0.52273314685000016 3.0811388301000004 3.2394512253000003
decision_type=2 2 2 2 2 2 2 2 2 2 2 2 2 2 2 2 2 2 2 2 2 2 2 2 2 2 2 2 2 2 2 2 2 2 2 2 2 2 2 2 2 2 2 2 2 2 2 2 2 2 2 2 2 2 2 2 2 2 2 2 2 2 2
left_child=1 8 21 4 -4 6 7 60 36 14 22 12 -12 -14 47 16 45 18 19 -18 -21 -3 42 24 32 26 27 51 31 -26 -31 -27 33 34 -24 -35 -1 38 39 -13 41 -22 43 44 -5 46 -16 48 -10 61 -28 -25 54 -54 55 56 -30 58 -58 -36 -2 -11 -63
right_child=5 2 3 10 -6 -7 -8 -9 9 49 11 37 13 -15 15 -17 17 -19 -20 20 40 -23 23 25 29 28 50 -29 52 30 -32 -33 -34 35 59 -37 -38 -39 -40 -41 -42 -43 -44 -45 -46 -47 -48 -49 -50 -51 -52 -53 53 -55 -56 -57 57 -59 -60 -61 -62 62 -64
leaf_value=-0.0044019545528874637 0.034299348853529033 0.011259418343743577 0.047589576973512474 -0.010345878274442721 3.7730731207550547e-06 -0.0040062603565353969 0.038472237800314883 -0.010432550648941082 0.018551685936533672 -0.010360522900368849 -0.0033875932358932775 -0.010376994717248088 0.048794351471942464 0.018393812498444413 -0.0072183420916679918 -0.010371106855936405 -0.010381483829340682 -0.0027723165990590375 0.040715819608436385 0.035879358383906594 0.033120968656118389 -0.0071573883465999334 -0.010357672612264888 -0.010375919479178078 0.036853716540573615 0.0028946222718545063 0.026324685298742812 0.035795340820249592 -0.01036533653729866 0.00030687115848579747 0.03415871328955393 0.034839446416173238 -0.0065779998974668024 -0.0080994354611287744 0.039854177189762224 0.012649950824071712 0.012655273250079754 -0.010390178783578197 -0.010387428296996199 0.0388421559189586 -0.0023725033567784624 0.0035744245207237385 -0.0037324112992920782 -0.010367398568230919 0.048676220218443193 0.018137113366184104 0.0097710670058887526 -0.0053063967417279192 -0.0043841774311843343 0.012338414165061633 0.052252054340269832 0.011830205994356351 0.039948592794545303 -0.0050971118519734957 -0.010379972177128107 0.028077861183656898 0.0023426492469568339 -0.010382683552869065 0.028451636037684129 0.015360304092021949 0.01165333352811653 0.014844661219140614 -0.0062372888501067451
leaf_count=2541 21 39 29 22 27 40 37 32 39 161 41 22 24 36 92 53 21 38 24 31 23 352 21 36 24 20 21 28 72 47 22 21 388 125 20 36 35 44 22 25 35 20 562 33 21 29 56 233 48 24 20 24 20 51 92 20 22 27 20 21 22 34 212
internal_value=0 -0.097664 0.160012 0.286169 2.64679 1.35608 1.93942 0.919066 -0.277628 0.0133612 0.216323 0.966253 1.82937 3.12149 0.298188 0.667773 0.898854 1.45676 1.84401 1.40089 1.83071 -0.530549 0.124791 0.307223 0.00267052 0.727104 2.05437 1.12587 0.242131 1.83861 1.13141 2.0152 -0.32835 0.218048 1.60239 -0.334828 -0.414651 0.16757 0.908419 1.76586 1.0414 2.01743 -0.228537 0.828065 2.17275 0.251105 -0.0676802 -0.215554 0.600835 -0.493351 3.91383 -0.108771 -0.00706623 0.825325 -0.256223 0.18354 -0.22971 0.554339 1.52819 2.77563 2.29044 -0.603123 -0.326963
internal_count=6398 6246 2497 2106 56 152 112 75 3749 1173 2050 214 101 60 742 422 369 192 154 130 109 391 1836 1198 704 494 129 88 365 93 69 41 611 223 62 161 2576 113 69 47 78 43 638 76 43 177 148 320 87 431 41 60 324 71 253 161 141 69 42 41 43 407 246
shrinkage=0.01


Tree=14
num_leaves=64
num_cat=0
split_feature=4 2 5 5 1 4 3 5 5 3 3 4 3 2 1 5 5 2 0 3 4 4 0 2 0 4 4 1 5 1 2 5 3 1 5 5 1 2 4 2 5 4 1 2 2 1 1 2 4 4 4 5 5 1 3 4 5 5 2 1 5 1 2
split_gain=21.4505 6.40362 3.82973 7.74707 5.99036 4.39714 3.68113 4.86158 9.01601 4.82029 7.09943 4.04187 3.87652 11.9328 18.7425 6.57548 5.5314 6.99762 17.7151 6.07212 6.24458 11.1226 3.67805 4.6085 3.56944 9.04559 9.86307 7.39932 3.50739 3.54223 4.82997 4.67944 3.48464 4.38456 5.66389 4.93188 5.58579 5.54761 6.75639 6.7525 3.40101 3.36385 5.1519 5.94493 4.81463 3.63523 3.7279 3.17764 3.23811 3.65391 7.43348 5.64739 7.29827 14.3804 3.81289 3.40027 3.11575 6.94583 3.39397 6.85527 3.0975 3.0634 8.60801
threshold=0.94671025990000002 0.81259612545000015 0.31224887340000002 0.32031230955000006 0.15000000000000005 0.78347472490000003 0.52428824425000009 0.49446915410000003 0.40963391020000006 0.57007084480000014 0.55670399120000014 1.4314212996 0.44715768680000006 0.89739203790000011 0.75000000000000011 0.38223027470000009 0.40853394595000009 0.60699047255000005 0.75000000000000011 0.41036105985000004 0.96639025440000015 0.99312200385000005 0.8500000000000002 0.55480845405000012 0.75000000000000011 0.87473726740000002 0.91792299750000017 0.25000000000000006 0.39006409205000009 0.45000000000000007 0.87016519570000017 0.37709405945000002 0.44715768680000006 1.3500000000000003 0.36653784980000004 0.39096035080000008 0.15000000000000005 0.85275287535000011 0.87966407465000018 1.1505433178000002 0.43726416240000004 0.87473726740000002 0.55000000000000016 0.87909753070000007 1.5699322445500001 1.1500000000000001 1.0500000000000003 0.75477642855000004 0.73830691915000013 0.64423700765000003 0.65478215345000013 0.37516648170000005 0.39420804650000002 0.25000000000000006 0.34603945240000006 0.48460780245000007 0.42976731595000006 0.43197220580000006 1.0447786740000002 0.8500000000000002 0.38865150955000011 0.15000000000000005 0.83609955455000018
decision_type=2 2 2 2 2 2 2 2 2 2 2 2 2 2 2 2 2 2 2 2 2 2 2 2 2 2 2 2 2 2 2 2 2 2 2 2 2 2 2 2 2 2 2 2 2 2 2 2 2 2 2 2 2 2 2 2 2 2 2 2 2 2 2
left_child=1 24 4 5 -3 -4 7 8 11 10 61 12 16 -14 -15 -16 17 18 19 20 -2 -22 23 -9 40 47 27 -27 29 31 -31 -19 33 35 -35 41 -37 -38 -39 -40 -1 42 -5 -44 45 46 -45 48 49 55 -51 54 53 -53 -52 -26 -10 -58 -59 -60 -36 -8 -63
right_child=6 2 3 32 -6 -7 9 22 56 -11 -12 -13 13 14 15 -17 -18 28 -20 -21 21 -23 -24 -25 25 26 -28 -29 -30 30 -32 -33 -34 34 60 36 37 38 39 -41 -42 -43 43 44 -46 -47 -48 -49 -50 50 51 52 -54 -55 -56 -57 57 58 59 -61 -62 62 -64
leaf_value=-0.0050773308501360359 -0.010381149641269577 0.017357894765859395 0.0080829422901318275 -0.004375613384228442 -0.0074077382986495457 0.038895746141309848 0.025205063488746831 0.028617622110387937 -0.010372343800606268 -0.0033407254352866241 0.042150295945270248 -0.010409381167823552 -0.0054424744261685996 0.063197544050410073 0.00041398555163013346 0.03030763851288815 0.023973220362203784 -0.01037989864487426 0.052549440182311738 -0.010373909329999518 0.052203787687372903 0.00082617341651688601 0.03351882302660824 -0.0024599397244999786 0.017071226531077496 0.052132489803334597 -0.0043930030069104413 0.013270307469218734 -0.010390391117740552 0.026196927747799029 0.0030643608852643769 0.01826300789032578 -0.0080255332646816564 0.029129102989867817 -0.010375071029320972 0.024661712923578702 0.029932995201879493 -0.0027073122209933993 -0.00090405117959949587 0.034409226639314873 0.016354923626711836 -0.010386011265932494 0.026484915623214863 0.0013513493844231942 0.025354603566468615 -0.010364874306931764 0.022536997307386914 -0.010362350171809556 -0.0061838309583981919 0.031900013304398893 -0.01037682337038014 -0.00084110992354408814 -0.004071713193439015 0.052936380316722612 0.0082744367876719602 -0.0054645023543581014 0.028439137779813023 -0.010368934882028655 0.030261360688283601 -0.010381639564219987 0.013088437043271456 -0.010447971476276185 0.026914405085738915
leaf_count=2211 20 30 28 438 293 20 28 20 140 36 21 36 55 21 46 28 39 89 22 47 22 25 23 34 22 21 46 33 75 29 138 20 117 34 29 38 21 220 29 27 21 104 31 270 24 72 26 139 277 25 99 29 43 25 45 248 22 87 20 27 34 36 23
internal_value=0 -0.214035 0.0317665 0.140006 -0.50156 2.12902 0.553849 0.443594 0.344827 1.28338 1.77937 0.652121 0.741963 1.44125 2.43754 1.23564 0.522272 0.368636 1.37599 0.456373 1.46896 2.51 1.68167 0.931956 -0.360925 -0.104355 1.37074 2.83109 -0.0227859 0.247251 0.708489 -0.513301 0.0693809 0.14442 1.21524 0.060922 0.606425 0.359177 0.16276 1.72475 -0.486242 -0.137821 -0.0258222 0.396103 0.2159 0.0628463 0.322766 -0.272683 -0.145411 0.0988651 0.527844 0.236133 1.19817 2.47022 -0.444335 -0.362007 -0.452025 0.067542 -0.393351 0.739531 0.274699 1.1455 0.534921
internal_count=6398 5169 1885 1562 323 48 1229 1085 1008 144 108 712 676 150 95 74 526 487 136 114 67 47 77 54 3284 1052 100 54 351 276 167 109 1514 1397 97 1300 335 297 276 56 2232 965 861 423 392 368 296 952 813 536 266 241 97 54 144 270 296 156 134 47 63 87 59
shrinkage=0.01


Tree=15
num_leaves=64
num_cat=0
split_feature=5 2 2 0 0 5 6 5 6 0 2 5 2 2 5 5 2 6 1 6 6 0 2 1 2 5 5 3 3 1 2 2 2 1 0 2 5 0 5 0 3 5 0 1 2 2 5 5 5 1 2 1 5 3 3 0 5 2 5 6 6 6 5
split_gain=13.1949 12.9569 9.71924 15.6697 8.54874 8.7823 13.9069 8.13518 10.0871 6.49476 9.19402 8.39645 5.43079 10.5728 9.28589 5.40376 6.49105 6.28448 9.4596 16.6653 4.71932 9.91094 9.66631 7.82304 3.94321 3.79961 7.61644 3.71867 3.35684 3.39711 4.41211 10.131 3.31234 3.55389 3.46197 5.62363 6.69762 5.73862 3.11295 3.91867 3.08776 2.98901 2.89932 2.84415 2.82434 6.15815 17.1555 4.52223 4.48861 3.83792 3.66416 5.87806 2.50918 3.79926 3.056 7.0972 3.49167 2.52412 2.5053 2.90235 2.43839 2.43173 3.07417
threshold=0.44838557495000003 0.89215327680000012 0.90915481105000018 0.65000000000000002 0.75000000000000011 0.35979159965000007 2.9142135623500005 0.46097690385000006 3.0811388301000004 0.8500000000000002 -1.0000000180025095e-35 0.50074937610000014 0.66497176240000011 0.79863161825000006 0.32687917365000008 0.35714142170000013 0.45311409280000003 3.6736043311500004 0.25000000000000006 3.3903632027500006 3.3903632027500006 0.35000000000000003 1.0682929909500001 0.25000000000000006 0.94240378290000015 0.42124814125000004 0.39881072710000004 0.38710458850000007 0.46893495140000002 1.4500000000000002 1.5539264490000002 1.6457326565000001 1.4480589010000002 1.2500000000000002 0.75000000000000011 0.9627434209500001 0.40853394595000009 0.8500000000000002 0.40373250875000005 0.65000000000000002 0.42408725105000006 0.31835506040000006 0.65000000000000002 0.45000000000000007 1.1265267332500002 1.0590384687000001 0.33473869575000009 0.37060755395000006 0.38736287360000005 0.75000000000000011 1.7084349172000002 1.5500000000000003 0.39881072710000004 0.39736630980000004 0.42408725105000006 0.65000000000000002 0.39755502265000014 0.76219253340000004 0.42877729580000007 3.3903632027500006 3.3903632027500006 1.0000000180025095e-35 0.37060755395000006
decision_type=2 2 2 2 2 2 2 2 2 2 2 2 2 2 2 2 2 2 2 2 2 2 2 2 2 2 2 2 2 2 2 2 2 2 2 2 2 2 2 2 2 2 2 2 2 2 2 2 2 2 2 2 2 2 2 2 2 2 2 2 2 2 2
left_child=1 4 3 -3 52 6 -6 -2 -9 10 11 -10 15 43 -15 16 -8 18 41 -20 24 22 -22 -23 -4 26 44 -25 29 30 32 -32 33 34 42 -36 37 -37 -28 -40 -41 -18 -29 -14 45 47 -47 -26 -49 -48 -46 -52 54 58 56 57 -1 -56 59 -54 -5 -7 -63
right_child=7 2 20 60 5 61 12 8 9 -11 -12 -13 13 14 -16 -17 17 -19 19 -21 21 23 -24 27 25 -27 38 28 -30 -31 31 -33 -34 -35 35 36 -38 -39 39 40 -42 -43 -44 -45 50 46 49 48 -50 -51 51 -53 53 -55 55 -57 -58 -59 -60 -61 -62 62 -64
leaf_value=-0.0038953428819253301 0.03808217437110209 0.049333989963282941 -0.010369766089353735 -0.010364316842862405 -0.006609692394670498 0.015677325945692912 -0.01040595374470619 -0.010432016245424686 0.0019536089179281362 0.031530478328609217 -0.0012909289241277938 0.044436092661851612 -0.010364612167509144 0.03839255774501292 -0.00080651972615308407 0.044804343627900825 0.0242017959118353 -0.0011440887342320642 0.0036341641815973527 0.064699030116374484 0.054181127822707245 0.024439496546362811 0.010372785326862054 -0.002101748860964515 -0.0080019773568373691 -0.01041386086151902 0.02614866757372555 0.0078878633101757967 -0.010414205036419164 -0.0054703259681159197 0.047873620866948782 0.00026623646295067171 -0.010383719171733226 0.028598825352641164 0.03365356514793074 0.017260577235499012 0.026253328078919204 -0.0070321826900903587 0.028585058945784204 -0.01040580523808275 0.010942406437352694 -0.00088863866284157641 -0.010404923243664646 0.0093413538825795461 -0.0043251141076471721 0.049897197202350023 -0.01038567737935399 0.022972015574755936 -0.0033263393773041959 0.013901454035536276 0.025040619685441894 -0.010396313982837984 0.022216415208342367 -0.0096230459681169445 -0.0039103258775409766 0.027081427393985037 0.018776200098995371 0.015670372920542398 -0.010367382990729536 -0.0016333563653061953 0.013814312850721874 -0.0077749467808388264 -0.00044669467565305898
leaf_count=2040 28 31 97 25 159 23 22 55 23 42 85 24 78 37 30 20 24 30 20 29 20 45 38 310 123 72 35 43 33 55 20 24 31 21 24 37 37 83 20 29 52 28 50 29 420 26 39 34 39 33 29 22 26 403 135 30 20 21 29 34 24 229 624
internal_value=0 -0.0254712 0.316197 2.12984 -0.203225 0.136283 0.692657 1.14751 0.843021 1.43654 0.884477 2.63363 1.26652 0.592712 2.18686 1.90757 1.58159 2.01447 2.61592 4.19063 0.242795 0.526821 2.56656 0.374518 0.00599869 0.1048 0.199636 0.247178 0.537922 0.66224 0.839485 2.30367 0.621493 0.787347 0.63059 1.05117 0.688056 0.0904002 1.32485 0.848964 0.322542 1.04624 -0.178818 -0.48925 -0.0100334 0.398436 1.45583 -0.15962 0.873863 0.109254 -0.264121 1.03289 -0.382653 -0.734821 -0.305049 0.351602 -0.366909 -0.113371 0.272588 0.899127 0.161711 -0.189032 -0.23424
internal_count=6398 6141 2021 80 4120 1382 506 257 229 174 132 47 347 174 67 173 153 131 101 49 1941 871 58 813 1070 973 901 768 458 425 370 44 326 295 274 181 157 120 136 101 81 52 93 107 765 294 98 196 73 72 471 51 2738 492 2246 186 2060 156 89 60 49 876 853
shrinkage=0.01


Tree=16
num_leaves=64
num_cat=0
split_feature=4 4 2 5 4 5 5 0 2 5 4 2 1 4 2 4 5 0 5 2 6 5 4 5 6 0 2 2 2 1 4 1 1 2 2 0 4 6 4 4 2 6 4 1 2 5 4 4 1 4 4 0 5 1 5 2 5 0 0 4 1 5 2
split_gain=23.1328 7.91664 7.15077 8.84721 11.2317 6.73676 14.8516 6.28102 9.74574 8.33385 5.80006 6.61494 5.29566 5.25638 6.0306 6.12225 5.3687 10.7336 5.22354 5.10074 4.64168 4.40289 4.02668 4.00518 5.81745 7.29197 4.69142 6.93667 18.9227 14.9022 8.64438 6.13408 3.9423 3.71691 3.66676 4.47335 3.99162 3.58349 3.50318 7.40601 9.912 7.58731 10.5229 9.70963 8.94282 9.77752 7.72521 4.69324 5.12718 5.79416 11.1758 3.31066 3.20432 5.47459 4.30144 10.2711 7.62921 4.48137 8.45651 3.13676 3.05094 6.9155 4.99236
threshold=0.98762487430000012 0.99312200385000005 0.81028542060000019 0.47958201910000003 1.4682237281500001 0.31456317920000004 0.32687917365000008 0.65000000000000002 0.61415587215000012 0.38386190465000009 0.62999491665000018 0.73335697625000018 0.15000000000000005 0.65478215345000013 0.64541648675000007 0.64762758225000006 0.29470313070000004 0.8500000000000002 0.50174639155000011 0.60182009985000018 1.8660254038000004 0.34734708120000007 0.63615256160000011 0.39855990275000003 3.5348264453000007 0.75000000000000011 1.6457326565000001 1.0366712572000003 1.0857024993500002 0.55000000000000016 1.0545055341500003 1.3500000000000003 1.4500000000000002 1.3933996151000001 0.50155996945000014 0.35000000000000003 0.74794760480000011 2.1180339887500002 0.6962339660500001 0.68884259295000017 0.90260039335000009 2.9142135623500005 0.64423700765000003 0.35000000000000003 1.1505433178000002 0.38203402430000005 0.63977978430000004 0.83442184190000013 0.25000000000000006 0.73718388575000016 0.79846184760000016 0.75000000000000011 0.41874809600000013 1.2500000000000002 0.33113433635000006 0.9627434209500001 0.32733766590000007 0.65000000000000002 0.45000000000000007 0.86577723415000019 1.0000000180025095e-35 0.34677081020000006 0.64541648675000007
decision_type=2 2 2 2 2 2 2 2 2 2 2 2 2 2 2 2 2 2 2 2 2 2 2 2 2 2 2 2 2 2 2 2 2 2 2 2 2 2 2 2 2 2 2 2 2 2 2 2 2 2 2 2 2 2 2 2 2 2 2 2 2 2 2
left_child=10 -2 3 7 12 -4 -7 -3 9 -9 60 13 -5 14 15 19 17 34 20 22 -13 -8 -12 24 33 -26 27 30 -29 -30 -25 -31 38 -23 35 36 -15 -18 39 41 -41 42 -22 -44 45 -45 -43 48 49 -40 -51 -50 53 54 55 59 -57 58 -56 -49 61 62 -1
right_child=1 2 5 4 -6 6 21 8 -10 -11 11 18 -14 16 -16 -17 37 -19 -20 -21 32 23 -24 26 25 -27 -28 28 29 31 -32 -33 -34 -35 -36 -37 -38 -39 47 40 -42 46 43 44 -46 -47 -48 52 51 50 -52 -53 -54 -55 57 56 -58 -59 -60 -61 -62 -63 -64
leaf_value=0.0015164914940988992 0.033479694979249408 -0.008903505726125421 -0.005904639339273837 0.020300474257682107 0.040707266805130128 0.045941442686779264 -0.010399205222266736 0.045026770293916982 -0.0066916401328478226 0.0052799660679750497 0.018283592799137664 0.024809934038381845 -0.010427268204475298 0.018588104202823922 -0.010370946130411675 0.032376407078578903 0.01231603806503101 0.028569122228243152 0.027420848997572161 0.027524929387798144 -0.010373247399704589 -0.010412885489522447 -0.010372264711840089 0.027428415895967864 0.04304432601686143 0.012833177960616964 -0.010414053427270529 0.060439514866729833 0.047982507581505879 -0.0026294999690345839 -0.01039857205891701 0.028168756671483709 -0.0080341203131957303 0.017396777629194497 -0.010365250008231089 0.025878818772983765 -0.01036721801638524 -0.004320723537536336 -0.010367140221254215 0.05120782619218632 0.0060653307011712876 0.02334800560656081 -0.010384191302866963 0.066632374153316909 0.0025976998674341516 0.020851893575216818 -0.0084952521169015475 0.012214338929680706 -0.0082400236482235729 0.026416253955361801 -0.010375735166010659 -0.00082774429483194721 -0.006402721776558257 0.024434457934300335 -0.0045664657753888621 -0.0069377138702898791 0.028458705762095672 -0.0027834367378406521 0.027475947492614752 0.035947392970828697 -0.0059085186134480109 -0.0052458200856034844 0.035678989781264679
leaf_count=26 28 197 60 25 25 29 27 20 77 34 21 23 34 21 44 34 38 40 20 22 40 23 48 21 35 42 33 20 20 101 70 20 117 25 73 24 45 1854 39 22 33 25 20 23 21 25 154 22 278 66 36 489 68 38 48 78 21 253 41 39 960 118 25
internal_value=0 0.751692 0.6688 0.147686 1.55081 1.05374 1.25359 -0.268651 0.596378 2.17316 -0.115942 -0.0281102 0.264657 -0.232129 0.681912 1.28505 -0.306772 0.52126 0.188715 0.556856 0.160495 1.01038 -0.183896 1.13641 1.86259 2.68921 0.792839 1.02754 1.64244 0.963117 -0.140131 0.254366 0.132597 0.497573 -0.130159 0.603236 -0.136004 -0.397801 0.192046 0.658707 2.41502 0.333273 1.28836 2.24623 3.12977 4.31164 -0.393422 0.079359 -0.171664 0.754144 1.39875 -0.349227 0.427783 0.561298 0.415672 1.10798 0.0537424 0.0805348 1.08015 2.71909 -0.469715 0.208684 1.88537
internal_count=6398 966 938 412 84 526 466 328 131 54 5432 4303 59 2264 169 125 2095 203 2039 91 2019 437 69 410 125 77 285 252 161 141 91 121 1996 48 163 90 66 1892 1879 363 55 308 129 89 69 48 179 1516 908 141 102 767 608 540 502 160 99 342 89 61 1129 169 51
shrinkage=0.01


Tree=17
num_leaves=64
num_cat=0
split_feature=4 4 2 5 4 5 5 0 2 5 4 2 3 4 2 3 4 5 0 5 5 6 5 5 5 6 3 3 5 5 0 2 0 4 2 6 2 2 0 4 4 4 0 5 5 4 4 5 2 6 2 5 5 4 2 4 4 5 5 5 2 2 2
split_gain=22.5252 7.42608 6.88599 8.55677 10.4364 6.49716 13.6701 6.18729 9.36917 7.65046 5.71609 6.48527 6.04936 5.14295 5.85865 5.8122 8.04074 5.26908 10.2094 5.09501 4.87836 4.55311 4.27086 3.93729 3.79248 5.4432 9.89976 5.39149 7.15217 12.5086 4.23099 3.61223 4.26115 3.88729 3.60377 3.49904 3.1985 2.8766 7.74348 2.9927 3.93148 3.23531 6.08697 3.73186 8.14095 3.39521 3.9994 4.03994 2.90372 5.08606 8.21223 4.54201 11.9812 2.92627 3.71906 2.75128 7.76913 3.94991 2.74881 4.84326 10.5853 5.98693 5.18361
threshold=0.98762487430000012 0.99312200385000005 0.81028542060000019 0.47958201910000003 1.4682237281500001 0.31456317920000004 0.32687917365000008 0.65000000000000002 0.61415587215000012 0.38386190465000009 0.62999491665000018 0.73335697625000018 0.31614868930000006 0.65478215345000013 0.64541648675000007 0.3977435565500001 0.64762758225000006 0.29470313070000004 0.8500000000000002 0.50174639155000011 0.36864614690000003 1.8660254038000004 0.34734708120000007 0.50867113740000014 0.39855990275000003 3.5348264453000007 0.44547726860000009 0.42373340265000009 0.44838557495000003 0.47169637675000003 0.8500000000000002 0.50155996945000014 0.35000000000000003 0.74794760480000011 1.3933996151000001 2.1180339887500002 0.56981350000000008 0.74393377115000014 0.65000000000000002 0.97018039235000009 0.85100681710000015 0.6962339660500001 0.35000000000000003 0.36864614690000003 0.38203402430000005 0.68884259295000017 0.63977978430000004 0.30124712085000005 0.8723172977000001 3.3903632027500006 0.90915481105000018 0.34212570005000004 0.33022718585000005 0.71906591120000007 0.97851923740000013 1.3098284497000003 1.1810049377500003 0.40024984395000007 0.41874809600000013 0.39881072710000004 1.2927683248000001 1.3004806581500001 1.1505433178000002
decision_type=2 2 2 2 2 2 2 2 2 2 2 2 2 2 2 2 2 2 2 2 2 2 2 2 2 2 2 2 2 2 2 2 2 2 2 2 2 2 2 2 2 2 2 2 2 2 2 2 2 2 2 2 2 2 2 2 2 2 2 2 2 2 2
left_child=10 -2 3 7 23 -4 -7 -3 9 -9 -1 13 -13 14 15 16 20 18 31 21 36 -14 -8 -5 25 34 -27 -26 55 -30 -31 32 33 -15 -24 -19 -12 38 -23 40 41 43 -43 45 -45 46 -39 -48 -44 51 -51 52 -50 -52 -55 56 57 -29 59 61 -61 62 -42
right_child=1 2 5 4 -6 6 22 8 -10 -11 11 12 19 17 -16 -17 -18 35 -20 -21 -22 37 24 -25 27 26 -28 28 29 30 -32 -33 -34 -35 -36 -37 -38 39 -40 -41 58 42 48 44 -46 -47 47 -49 49 50 53 -53 -54 54 -56 -57 -58 -59 -60 60 -62 -63 -64
leaf_value=-0.0046708155625727237 0.032142997141946385 -0.0088879744421980628 -0.0058776769640023043 0.015714194984095705 0.038846599853731796 0.043619352005850723 -0.010395078891366738 0.042800238256396526 -0.0066661349031466874 0.0052016922258430335 -0.010367927187995354 0.03040550641454277 0.024004631435560437 0.018084833735699503 -0.010367120199244932 -0.010365221065980002 0.043629351566799389 0.012053804587688191 0.02754882674891115 0.026470486665747188 0.03126097168267615 -0.010358527200337315 -0.010408611445940814 -0.010452291428742979 0.026461870686330418 0.0082331585147232978 0.042931761335112152 0.01560864856665734 0.051287920827823692 -0.0040185796226496831 0.023356717463018168 -0.01036148527977411 0.025009845077626203 -0.010363432104533405 0.016951781873687521 -0.0042948147875577882 0.016560471270718812 0.012814416044589832 0.027720562775155392 -0.010412883732632296 0.004196920391182437 0.012670696678222404 -0.0081069701010693003 0.030460662186471428 0.0020328169612351052 0.015516338001146697 0.013472312084707958 -0.010371957221538664 -0.010372063516955569 0.026823056243776341 0.015118130824607143 -0.0084546109328174236 0.037113579843924667 0.014402665205812036 -0.004592887787046084 -0.010422584736613052 0.026927713573116123 -0.010380308537977945 -0.0056985519073999916 0.0039353736525837325 0.041712591198274682 -0.007525334936103135 0.02314367838569939
leaf_count=1129 28 197 60 31 25 29 27 20 77 34 32 20 23 21 44 26 26 38 40 20 21 27 23 28 35 42 35 20 20 38 21 73 24 45 25 1854 20 36 38 63 205 70 265 38 86 32 24 136 42 38 33 304 21 36 198 55 26 70 58 57 26 98 45
internal_value=0 0.738798 0.657812 0.145865 1.51342 1.03282 1.22647 -0.266732 0.58703 2.10897 -0.114967 -0.0279072 0.186386 -0.230337 0.670553 1.25673 1.8383 -0.304593 0.513365 0.157201 0.922137 0.128735 0.990714 0.261244 1.11302 1.8126 2.59756 0.778848 0.51585 1.72305 0.593012 -0.129106 0.593655 -0.134887 0.490274 -0.395291 0.0543618 0.100536 1.22259 0.0640183 0.103841 -0.0476452 -0.204891 0.385966 1.09423 -0.0312842 -0.301202 -0.673433 -0.323645 -0.138624 0.3714 -0.565668 0.711574 0.037467 -0.175991 -0.0998226 0.358267 -0.417775 0.499302 0.64075 1.73277 0.364461 0.782833
internal_count=6398 966 938 412 84 526 466 328 131 54 5432 4303 2039 2264 169 125 99 2095 203 2019 73 1999 437 59 410 125 77 285 250 79 59 163 90 66 48 1892 52 1976 65 1911 1848 1359 1007 352 124 228 196 160 937 672 305 367 63 267 234 171 116 90 489 431 83 348 250
shrinkage=0.01


Tree=18
num_leaves=64
num_cat=0
split_feature=4 4 2 5 4 5 5 0 2 5 4 2 3 4 2 3 4 5 0 5 5 6 5 5 5 5 6 3 3 5 5 0 2 0 4 6 2 2 0 4 4 4 0 5 5 4 4 5 2 6 2 5 5 2 5 5 4 4 5 5 5 2 2
split_gain=21.9379 6.97677 6.63423 8.27926 9.71978 6.2696 12.6181 6.09546 9.0139 7.04431 5.63293 6.35893 5.74545 5.03173 5.69324 5.5874 7.37326 5.17156 9.72124 4.86061 4.60126 4.35523 4.14489 3.83103 3.59467 5.2743 5.13811 9.16433 5.09568 6.87086 11.4465 4.05189 3.55885 4.06285 3.78748 3.41727 3.11561 2.78216 7.38372 2.95673 3.83338 3.16664 5.92547 3.60856 7.66453 3.29029 3.90884 3.97321 2.87952 5.00024 7.82005 4.47945 11.3836 2.88197 4.09692 3.78876 2.71574 7.43287 3.86795 2.67973 4.62787 9.7951 5.84653
threshold=0.98762487430000012 0.99312200385000005 0.81028542060000019 0.47958201910000003 1.4682237281500001 0.31456317920000004 0.32687917365000008 0.65000000000000002 0.61415587215000012 0.38386190465000009 0.62999491665000018 0.73335697625000018 0.31614868930000006 0.65478215345000013 0.64541648675000007 0.3977435565500001 0.64762758225000006 0.29470313070000004 0.8500000000000002 0.50174639155000011 0.36864614690000003 1.8660254038000004 0.34734708120000007 0.50867113740000014 0.39855990275000003 0.38736287360000005 3.5348264453000007 0.44547726860000009 0.42373340265000009 0.44838557495000003 0.47169637675000003 0.8500000000000002 0.50155996945000014 0.35000000000000003 0.74794760480000011 2.1180339887500002 0.56981350000000008 0.74393377115000014 0.65000000000000002 0.97018039235000009 0.85100681710000015 0.6962339660500001 0.35000000000000003 0.36864614690000003 0.38203402430000005 0.68884259295000017 0.63977978430000004 0.30124712085000005 0.8723172977000001 3.3903632027500006 0.90915481105000018 0.34212570005000004 0.33022718585000005 1.2758575488500001 0.38865150955000011 0.29196817915000006 1.3098284497000003 1.1810049377500003 0.40024984395000007 0.41874809600000013 0.39881072710000004 1.2927683248000001 1.3004806581500001
decision_type=2 2 2 2 2 2 2 2 2 2 2 2 2 2 2 2 2 2 2 2 2 2 2 2 2 2 2 2 2 2 2 2 2 2 2 2 2 2 2 2 2 2 2 2 2 2 2 2 2 2 2 2 2 2 2 2 2 2 2 2 2 2 2
left_child=10 -2 3 7 23 -4 -7 -3 9 -9 -1 13 -13 14 15 16 20 18 32 21 36 -14 -8 -5 25 26 -24 -28 -26 56 -31 -32 33 34 -15 -19 -12 38 -23 40 41 43 -43 45 -45 46 -39 -48 -44 51 -51 52 -50 54 55 -52 57 58 -30 60 62 -62 -42
right_child=1 2 5 4 -6 6 22 8 -10 -11 11 12 19 17 -16 -17 -18 35 -20 -21 -22 37 24 -25 28 -27 27 -29 29 30 31 -33 -34 -35 -36 -37 -38 39 -40 -41 59 42 48 44 -46 -47 47 -49 49 50 53 -53 -54 -55 -56 -57 -58 -59 -60 -61 61 -63 -64
leaf_value=-0.0046443862828935275 0.030900297054099992 -0.0088723900636304264 -0.0058507068708309228 0.015332349059497279 0.037138959652720183 0.041509706012749545 -0.010390996614536527 0.040773199853067377 -0.0066405896971627647 0.0051249610539960922 -0.010364134229197901 0.029266193325042791 0.023243832033825511 0.017603872108133609 -0.010363335338581033 -0.010361456046290985 0.041478248534577898 0.011800159214787904 0.026591618405717696 0.025576915670644521 0.030059703513218228 -0.010354832952054787 -0.0031621804627801047 -0.010447591361352431 0.025566365321804469 0.037963821849270184 0.0029590034761064303 0.038371391539446166 0.015231796641731934 0.048448303704632933 -0.0039930925802643237 0.022634732588330896 -0.010357761046100771 0.024190723955232189 -0.010359686766418812 -0.0042689634622877426 0.016145491046942604 0.012536202939682764 0.026744137003615824 -0.010408612223285752 0.0076938567957366656 0.012397735090515279 -0.0080869803342000432 0.029322306057141735 0.0020087059131904139 0.015141684456305069 0.013171341813049844 -0.010368122441285177 -0.010368226419009712 0.025901416332205995 0.018035154206091249 -0.0084363573863621456 0.035511226595075725 -0.0072717034878915796 0.024735019229569222 -0.0031784103976632422 -0.010418213512961389 0.026009067037392499 -0.010376383883341967 -0.0056714378729131269 0.0038818318374587274 0.039762165932566311 -0.0075024001967806909
leaf_count=1129 28 197 60 31 25 29 27 20 77 34 32 20 23 21 44 26 26 38 40 20 21 27 35 28 35 22 39 29 20 20 38 21 73 24 45 1854 20 36 38 63 250 70 265 38 86 32 24 136 42 38 29 304 21 94 23 121 55 26 70 58 57 26 98
internal_value=0 0.726276 0.647129 0.144082 1.47751 1.01261 1.20038 -0.264825 0.577912 2.04809 -0.11399 -0.0276983 0.184112 -0.228559 0.659391 1.22925 1.78856 -0.302425 0.505646 0.155316 0.90487 0.127212 0.971709 0.2579 1.09047 1.765 1.27794 2.02754 0.765298 0.508049 1.67857 0.583793 -0.12806 0.584297 -0.133779 -0.392788 0.0537091 0.0993575 1.19634 0.0632659 0.102628 -0.0472588 -0.203285 0.380643 1.07227 -0.031046 -0.299073 -0.670919 -0.321425 -0.137483 0.366333 -0.563025 0.699543 0.037045 0.442467 0.110566 -0.0990178 0.353384 -0.415261 0.491957 0.630521 1.68823 0.359558
internal_count=6398 966 938 412 84 526 466 328 131 54 5432 4303 2039 2264 169 125 99 2095 203 2019 73 1999 437 59 410 125 103 68 285 250 79 59 163 90 66 1892 52 1976 65 1911 1848 1359 1007 352 124 228 196 160 937 672 305 367 63 267 173 150 171 116 90 489 431 83 348
shrinkage=0.01


Tree=19
num_leaves=64
num_cat=0
split_feature=4 4 2 5 4 5 5 0 2 5 4 2 1 4 2 5 0 4 5 4 5 4 6 5 1 6 5 6 0 2 2 2 1 4 1 2 4 4 2 6 4 1 2 5 4 4 1 4 4 0 4 4 0 1 5 2 5 1 5 2 5 0 0
split_gain=21.3694 6.56432 6.39409 8.01396 9.0716 6.05291 11.6776 6.00547 8.67826 6.50418 5.55084 6.23521 5.10571 4.92347 5.53484 5.0914 9.47959 6.87853 5.02041 5.662 4.52768 4.35278 4.05549 4.02436 3.82518 3.48245 3.40997 4.86789 6.4459 4.45274 6.43587 16.7602 13.4114 8.20315 5.65006 3.46132 3.2364 6.72235 8.87692 7.08343 10.048 8.91904 7.95888 7.89752 7.28192 4.42621 4.934 5.55344 10.4997 3.28938 3.08934 4.92369 3.34664 3.03981 6.73598 4.683 3.00943 5.06347 4.11033 9.48538 7.28627 4.34015 7.94352
threshold=0.98762487430000012 0.99312200385000005 0.81028542060000019 0.47958201910000003 1.4682237281500001 0.31456317920000004 0.32687917365000008 0.65000000000000002 0.61415587215000012 0.38386190465000009 0.62999491665000018 0.73335697625000018 0.15000000000000005 0.65478215345000013 0.64541648675000007 0.3166225578500001 0.8500000000000002 0.80719901340000011 0.39096035080000008 0.64762758225000006 0.50174639155000011 0.63615256160000011 1.8660254038000004 0.34734708120000007 1.4500000000000002 2.1180339887500002 0.39855990275000003 3.5348264453000007 0.75000000000000011 1.6457326565000001 1.0366712572000003 1.0857024993500002 0.55000000000000016 1.0545055341500003 1.3500000000000003 1.3933996151000001 0.6962339660500001 0.68884259295000017 0.90260039335000009 2.9142135623500005 0.64423700765000003 0.35000000000000003 1.1505433178000002 0.38203402430000005 0.63977978430000004 0.83442184190000013 0.25000000000000006 0.73718388575000016 0.79846184760000016 0.75000000000000011 0.71744064080000014 0.75662397760000011 0.35000000000000003 1.0000000180025095e-35 0.34677081020000006 0.64541648675000007 0.41874809600000013 1.2500000000000002 0.33113433635000006 0.9627434209500001 0.32733766590000007 0.65000000000000002 0.45000000000000007
decision_type=2 2 2 2 2 2 2 2 2 2 2 2 2 2 2 2 2 2 2 2 2 2 2 2 2 2 2 2 2 2 2 2 2 2 2 2 2 2 2 2 2 2 2 2 2 2 2 2 2 2 2 2 2 2 2 2 2 2 2 2 2 2 2
left_child=10 -2 3 7 12 -4 -7 -3 9 -9 53 13 -5 14 18 16 50 -18 19 21 22 -12 -13 -8 36 -17 27 35 -29 30 33 -32 -33 -28 -34 -25 37 39 -39 40 -24 -42 43 -43 -41 46 47 -38 -49 -48 -15 52 -52 54 55 -1 57 58 59 -47 -61 62 -60
right_child=1 2 5 4 -6 6 23 8 -10 -11 11 20 -14 15 -16 25 17 -19 -20 -21 -22 -23 24 26 -26 -27 29 28 -30 -31 31 32 34 -35 -36 -37 45 38 -40 44 41 42 -44 -45 -46 56 49 48 -50 -51 51 -53 -54 -55 -56 -57 -58 -59 61 60 -62 -63 -64
leaf_value=0.0016058389494237497 0.029741950521219244 -0.0088567523838700302 -0.0058237296961519622 0.019574660437645448 0.035566046100336264 0.039584356688587168 -0.010386957955614862 0.038919739553993943 -0.0066150058747032527 0.0050497297666290538 0.029130836470311682 0.022523936761638948 -0.010424046965434459 -0.010356383326528636 -0.010359590656491198 0.011554695785065277 0.004072154695369359 0.036212052324576575 -0.010367582925388663 0.036416588993202312 0.024735174211718967 0.00062054968111878081 -0.010380544848300933 -0.010408442383936156 -0.0080011098994871872 -0.0045959982805447771 0.02588518647246291 0.038911872755764472 0.011477378467122172 -0.010414504854719847 0.05531239840259166 0.044131285147508845 -0.0027275766327619173 -0.010398833876752934 0.026164702863426405 0.016278941865050422 -0.010362964856866077 0.047202448128517968 0.005571377688858104 0.021901321807062862 -0.010382069566259986 0.060063008232392842 0.0024200877970776799 0.020073846808937007 -0.0084725231883023434 0.025775471484156438 -0.0082104507729746853 0.025201714437828454 -0.010372793418648406 -0.00078842554099281287 0.03508113337803314 -0.0024864748012247812 0.0037759167836673019 -0.005839657732196005 -0.0051708657207540955 0.034557331092631538 -0.0063275194077280807 0.023149848607260007 -0.0045656288371673653 -0.0069307687488142289 0.027244097209242257 -0.0028248466341012301 0.026227319727839208
leaf_count=26 28 197 60 25 25 29 27 20 77 34 22 23 34 88 44 38 38 30 24 28 20 51 40 23 117 1708 21 35 42 33 20 20 101 70 20 25 39 22 33 25 20 23 21 25 154 61 278 66 36 489 20 152 21 960 118 25 68 38 48 78 21 253 41
